svm_type c_svc
kernel_type rbf
gamma 1
nr_class 2
total_sv 871
rho 10.1467
label 1 -1
probA -2.09624
probB 0.349204
nr_sv 467 404
SV
16384 1:0.032 2:0.104106 3:0.0108381 4:0.0227943 5:0.0076488 6:0.400648 
16384 1:0.028 2:0.0619379 3:0.0038363 4:0.00648457 5:0.00645454 6:0.0443274 7:1 
16384 1:0.032 2:0.0692051 3:0.00478935 4:0.0153272 5:0.0062349 6:0.604943 7:1 
16384 1:0.008 2:0.0587959 3:0.00345696 4:0.0088426 5:0.0141802 6:0.234117 7:1 
16384 1:0.008 2:0.0528874 3:0.00279708 4:0.0141482 5:0.0136531 6:0.177147 7:1 
342.2868274076022 1:0.108 2:0.293851 3:0.0863483 4:0.0976616 5:0.0345651 6:0.633063 7:1 
16384 1:0.004 2:0.14462 3:0.0209148 4:0.0123796 5:0.00790687 6:0.0692058 
16384 4:0.00353704 5:0.004821 6:0.0688006 7:1 
16384 4:0.00982511 5:0.00608116 6:0.377472 7:1 
16384 1:0.028 2:0.0495563 3:0.00245583 4:0.00589507 5:0.00540303 6:0.19295 7:1 
16384 1:0.016 2:0.102425 3:0.010491 4:0.00727058 5:0.00694322 6:0.0902755 
19.55969054269347 1:0.124 2:0.681084 3:0.108875 4:0.164538 5:0.132668 6:0.801783 7:1 
16384 4:0.0235803 5:0.0121898 6:0.514182 7:1 
16384 1:0.024 2:0.0727199 3:0.00528818 4:0.00982511 5:0.00815396 6:0.312642 
115.4311216501919 1:0.004 2:1 3:1 4:0.0558066 5:0.0320421 6:0.8047 7:1 
2317.001573890891 1:0.332 2:0.086263 3:0.0147521 4:0.0104146 5:0.00831045 6:0.0420583 7:1 
13235.38049489026 1:0.004 2:0.262092 3:0.068692 4:0.0161132 5:0.00738799 6:0.163614 7:1 
7390.884625857852 1:1 2:0.133473 3:0.0178151 4:0.16683 5:0.0692291 6:0.478525 7:1 
16384 4:0.0214187 5:0.0144136 6:0.425041 7:1 
16283.76403113703 1:0.008 2:0.274433 3:0.00508007 4:0.0475535 5:0.0254008 6:0.253809 
16384 1:0.016 2:0.0774976 3:0.00600588 4:0.0161132 5:0.00828575 6:0.409806 7:1 
4890.236203677633 1:0.02 2:0.0489436 3:0.00239547 4:0.0117901 5:0.0125769 6:0.462075 7:1 
16384 1:0.012 2:0.053357 3:0.00284697 4:0.0218118 5:0.010375 6:0.448703 7:1 
16384 4:0.0136897 5:0.00752526 6:0.295786 
16384 1:0.056 2:0.0708582 3:0.00502088 4:0.0220083 5:0.00854107 6:0.308266 
1805.724372437195 1:0.524 2:0.211926 3:0.0353282 4:0.0960896 5:0.0551999 6:0.597893 
16384 1:0.024 2:0.0940485 3:0.00884511 4:0.0166372 5:0.00703108 6:0.869611 
16384 1:0.02 2:0.0713141 3:0.00508571 4:0.00255453 5:0.00535361 6:0.0650729 7:1 
332.3227755906551 1:0.004 2:0.0941958 3:0.00887285 4:0.0243663 5:0.0094855 6:0.294246 7:1 
4879.3243013203 1:0.072 2:0.0869603 3:0.00019938 4:0.00943211 5:0.00812926 6:0.0243112 7:1 
5000.444975978534 1:0.008 2:0.100796 3:0.0101598 4:0.0139517 5:0.0108967 6:0.796434 
16384 1:0.008 2:0.132569 3:0.0207711 4:0.0102181 5:0.00798924 6:0.056564 
16384 1:0.004 2:0.108388 3:0.0117479 4:0.00766359 5:0.00834615 6:0.0504052 7:1 
16384 1:0.008 2:0.0947535 3:0.00897823 4:0.0117901 5:0.00374204 6:0.523015 7:1 
1239.202734284993 1:0.028 2:0.229795 3:0.0305986 4:0.123272 5:0.0250686 6:0.429498 7:1 
16384 1:0.016 2:0.0615272 3:0.00378559 4:0.0147377 5:0.0072919 6:0.305105 
16384 1:0.056 2:0.0536271 3:8.1528e-05 4:0.00393005 5:0.00616901 6:0.0401135 7:1 
10693.29569034967 1:0.956 2:0.0620053 3:0.0022836 4:0.0216152 5:0.016555 6:0.312075 
16384 4:0.0159167 5:0.0124259 6:0.380551 
16384 4:0.040676 5:0.019122 6:0.534522 
16384 1:0.004 2:0.10862 3:0.0117982 4:0.0106111 5:0.00780804 6:0.83282 
16384 1:0.008 2:0.0702653 3:0.00493721 4:0.00530556 5:0.00525752 6:0.442058 7:1 
16384 4:0.00510906 5:0.00661652 6:0.0568071 7:1 
16384 1:0.004 2:0.109592 3:0.0120104 4:0.0104146 5:0.00823358 6:0.0790113 7:1 
5304.733062537136 1:0.264 2:0.0850605 3:0.000390478 4:0.0231873 5:0.0259856 6:0.0746353 7:1 
16384 1:0.268 2:0.0728093 3:2.15717e-05 4:0.00294753 5:0.00680046 6:0.0223663 7:1 
16384 1:0.124 2:0.0606332 3:0.000277854 4:0.0220083 5:0.010224 6:0.17966 7:1 
16384 1:0.012 2:0.0738639 3:0.00545588 4:0.0108076 5:0.00937294 6:0.488655 7:1 
16384 1:0.012 2:0.048932 3:0.00239104 4:0.00471605 5:0.0034922 6:0.36329 
8130.225274318301 1:0.016 2:0.0710458 3:0.0050475 4:0.0147377 5:0.0122804 6:0.248865 
16384 1:0.004 2:0.084 3:0.007056 4:0.00471605 5:0.00709422 6:0.0580227 7:1 
16384 1:0.008 2:0.155708 3:0.0242449 4:0.0151307 5:0.00419229 6:0.363209 
16384 1:0.008 2:0.0652396 3:0.0042562 4:0.0168992 5:0.00589447 6:0.69295 7:1 
16384 1:0.04 2:0.0744937 3:0.00554931 4:0.0103491 5:0.00778058 6:0.357536 
16384 1:0.004 2:0.0947959 3:0.00898626 4:0.0188642 5:0.00860422 6:0.562642 
3200.621992622897 1:0.028 2:0.17577 3:0.0134994 4:0.0262003 5:0.00799747 6:0.112318 7:1 
16384 4:0.0184712 5:0.0119509 6:0.559076 7:1 
16384 4:0.0125761 5:0.00640786 6:0.276337 
16384 4:0.0121831 5:0.00732759 6:0.264019 
16384 4:0.00766359 5:0.00777235 6:0.168395 7:1 
15939.81915143225 1:0.02 2:0.114132 3:0.00912221 4:0.0088426 5:0.0119427 6:0.0509724 7:1 
7143.139852355565 1:0.004 2:0.22462 3:0.050454 4:0.0506976 5:0.0201872 6:0.176175 7:1 
16384 1:0.016 2:0.0739749 3:0.00547229 4:0.0196502 5:0.00643532 6:0.446029 7:1 
16384 1:0.004 2:0.0867959 3:0.00753352 4:0.00412655 5:0.00762135 6:0.114668 7:1 
4230.788684304511 1:0.3 2:0.106896 3:0.00266181 4:0.14456 5:0.0382413 6:0.569044 
16384 1:0.028 2:0.07321 3:0.00535971 4:0.00962861 5:0.00803316 6:0.317909 7:1 
16384 1:0.02 2:0.0860014 3:0.00739623 4:0.0106111 5:0.00781902 6:0.843436 
16384 1:0.012 2:0.137996 3:0.0190429 4:0.0216152 5:0.00747584 6:0.42966 
16384 1:0.004 2:0.0526196 3:0.00276882 4:0.00569857 5:0.00813475 6:0.0919773 7:1 
16384 4:0.00137552 5:0.00495003 6:0.01953 7:1 
16384 4:0.00530556 5:0.00697892 6:0.0687196 7:1 
16384 4:0.0290823 5:0.013675 6:0.178363 
16384 1:0.032 2:0.0499208 3:0.00249209 4:0.0125761 5:0.0122117 6:0.334117 7:1 
16384 4:0.00216152 5:0.0031051 6:0.267261 7:1 
5848.927621046848 1:0.208 2:0.175914 3:0.0266688 4:0.0491256 5:0.0158028 6:0.230308 7:1 
16384 4:0.00628807 5:0.00746486 6:0.207699 7:1 
16384 1:0.028 2:0.0679441 3:0.0017328 4:0.00805659 5:0.00794806 6:0.197002 7:1 
16384 1:0.016 2:0.0514662 3:0.00252079 4:0.0133622 5:0.0122557 6:0.0996759 7:1 
16384 1:0.004 2:0.122796 3:0.0150788 4:0.0131657 5:0.0129585 6:0.0987034 7:1 
16384 1:0.008 2:0.0586021 3:0.0034342 4:0.0159167 5:0.00963925 6:0.299676 
16384 1:0.012 2:0.0690916 3:0.00477365 4:0.0163097 5:0.0086756 6:0.553566 7:1 
8236.630376546278 1:0.544 2:0.147375 3:0.0166862 4:0.127726 5:0.0405722 6:0.676742 7:1 
3685.135321756283 1:0.04 2:0.286619 3:0.162246 4:0.040676 5:0.0310235 6:0.312237 7:1 
16384 1:0.028 2:0.055488 3:0.00307891 4:0.00707408 5:0.00924116 6:0.125851 7:1 
16384 1:0.032 2:0.0897958 3:0.00806328 4:0.0159167 5:0.00692126 6:0.292464 7:1 
16384 4:0.0176852 5:0.00964199 6:0.414587 
16384 1:0.004 2:0.0660915 3:0.00436809 4:0.00707408 5:0.00641335 6:0.114019 7:1 
3877.454259662244 1:0.008 2:0.139489 3:0.0194573 4:0.0106111 5:0.00471118 6:0.407293 7:1 
16384 1:0.004 2:0.044183 3:0.00195214 4:0.0165062 5:0.0135405 6:0.463614 7:1 
7548.918599208977 1:0.064 2:0.236373 3:0.055872 4:0.0455885 5:0.0105425 6:0.57342 7:1 
16384 1:0.02 2:0.082932 3:0.00687771 4:0.0115936 5:0.00689381 6:0.3094 
16384 1:0.004 2:0.238092 3:0.0566876 4:0.00491256 5:0.00710521 6:0.13671 7:1 
16384 1:0.036 2:0.0886847 3:0.00786498 4:0.00334054 5:0.00452449 6:0.277715 7:1 
16384 1:0.024 2:0.0607124 3:0.003686 4:0.0119866 5:0.00599879 6:0.541329 7:1 
16384 1:0.008 2:0.105796 3:0.0111927 4:0.0125761 5:0.00834065 6:0.23517 
16384 1:0.02 2:0.129966 3:0.00485352 4:0.0505666 5:0.0213184 6:0.0444895 
16384 1:0.004 2:0.0772041 3:0.00596048 4:0.00550206 5:0.00518889 6:0.4641 
16384 1:0.012 2:0.0730612 3:0.00533794 4:0.0121831 5:0.00563365 6:0.820421 
6081.756129608824 4:0.157595 5:0.0458846 6:0.143112 
16384 1:0.012 2:0.0517652 3:0.00267964 4:0.0084496 5:0.00876894 6:0.468395 7:1 
16384 4:0.0137552 5:0.0187267 6:0.54684 7:1 
16384 4:0.0127726 5:0.0122447 6:0.498541 7:1 
16384 1:0.032 2:0.0676198 3:0.00457244 4:0.0141482 5:0.00561718 6:0.316937 
16384 4:0.0190607 5:0.0128514 6:0.732496 7:1 
16384 4:0.0131657 5:0.0107841 6:0.663776 7:1 
16384 4:0.00982511 5:0.00830496 6:0.129903 7:1 
16384 4:0.00917011 5:0.00778058 6:0.346515 
16384 1:0.02 2:0.0662733 3:0.00439215 4:0.0137552 5:0.0091588 6:0.563128 7:1 
16384 1:0.008 2:0.0935686 3:0.00875509 4:0.0135587 5:0.0106358 6:0.108185 7:1 
16384 1:0.1 2:0.0890009 3:0.00792117 4:0.0216807 5:0.00836536 6:0.137439 
16384 4:0.0188642 5:0.0136476 6:0.334522 
16384 4:0.0123796 5:0.0132111 6:0.43671 7:1 
16384 1:0.004 2:0.0815918 3:0.00665722 4:0.00609157 5:0.00583132 6:0.290762 7:1 
16384 1:0.028 2:0.0680236 3:0.00462722 4:0.00569857 5:0.00793433 6:0.352917 7:1 
16384 1:0.016 2:0.0983768 3:0.00967799 4:0.00510906 5:0.00721502 6:0.227472 7:1 
16384 1:0.004 2:0.052183 3:0.00272307 4:0.0115936 5:0.00994948 6:0.30235 7:1 
16384 1:0.004 2:0.100183 3:0.0100366 4:0.00176852 5:0.00298979 6:0.0871961 7:1 
16384 1:0.004 2:0.0907959 3:0.00824389 4:0.00157202 5:0.00407149 6:0.041248 7:1 
16384 1:0.008 2:0.0908136 3:0.00824711 4:0.00347154 5:0.00350044 6:0.145867 
16384 4:0.0133622 5:0.0191934 6:0.262156 7:1 
16384 1:0.008 2:0.0625352 3:0.00391065 4:0.0196502 5:0.00643806 6:0.511912 7:1 
16384 1:0.024 2:0.0883545 3:0.00780652 4:0.0137552 5:0.00844224 6:0.855186 
16384 1:0.004 2:0.044 3:0.001936 4:0.0186677 5:0.00865913 6:0.450324 
5931.231632586578 1:0.044 2:0.150908 3:0.0227733 4:0.0540381 5:0.0158604 6:0.528039 
16384 1:0.008 2:0.24366 3:0.0582607 4:0.0595402 5:0.0169586 6:0.598541 
4676.233160145513 1:0.548 2:0.154761 3:0.0247101 4:0.0989716 5:0.0521058 6:0.729984 
3073.789921776838 1:0.068 2:0.246707 3:0.00247177 4:0.0172922 5:0.0153937 6:0.0618314 7:1 
3354.607833104585 1:0.048 2:0.455452 3:0.023961 4:0.090522 5:0.0717027 6:0.719449 7:1 
16384 1:1 2:0.0758633 3:9.91702e-06 4:0.0222703 5:0.0119921 6:0.141653 7:1 
16384 1:0.008 2:0.0636478 3:0.00417561 4:0.0084496 5:0.00384637 6:0.40859 
16384 1:0.012 2:0.1038 3:0.010243 4:0.00157202 5:0.00388206 6:0.0657212 7:1 
16384 4:0.00373354 5:0.00531518 6:0.028201 7:1 
16384 1:0.004 2:0.238796 3:0.0570235 4:0.0198467 5:0.00851636 6:0.467666 7:1 
16384 4:0.0141482 5:0.0115116 6:0.796596 7:1 
16384 1:0.004 2:0.125204 3:0.0156761 4:0.00491256 5:0.00541676 6:0.117828 7:1 
16384 4:0.00805659 5:0.0106139 6:0.233549 7:1 
16384 1:0.004 2:0.0747959 3:0.00559442 4:0.0141482 5:0.00947178 6:0.162237 
1575.209421770043 1:0.04 2:0.073391 3:0.00783159 4:0.0151307 5:0.0121898 6:0.155835 7:1 
16384 1:0.012 2:0.0681902 3:0.00464991 4:0.0133622 5:0.00940314 6:0.339465 7:1 
16384 4:0.0218118 5:0.00863442 6:0.481686 7:1 
16384 1:0.064 2:0.065675 3:0.0043132 4:0.0151307 5:0.00563914 6:0.7047 7:1 
16384 4:0.0141482 5:0.0154761 6:0.565154 
16384 1:0.016 2:0.0860458 3:0.00740387 4:0.00176852 5:0.00284153 6:0.184198 7:1 
16384 1:0.028 2:0.0955101 3:0.00912218 4:0.00432305 5:0.00541401 6:0.172447 7:1 
16384 1:0.028 2:0.0864107 3:0.00746681 4:0.00727058 5:0.00408247 6:0.220746 
16384 1:0.048 2:0.0765975 3:0.00586717 4:0.00569857 5:0.00428838 6:0.549676 
9033.452299739254 1:1 2:0.0916225 3:0.0102383 4:0.0199777 5:0.0120717 6:0.11329 
16384 1:0.06 2:0.0715578 3:0.00512052 4:0.00550206 5:0.00674006 6:0.0839546 7:1 
16384 1:0.028 2:0.0645071 3:0.00416116 4:0.00687758 5:0.00400835 6:0.691734 
16384 1:0.004 2:0.110092 3:0.0121201 4:0.00117901 5:0.00382715 6:0.135494 7:1 
16384 4:0.0145412 5:0.0152015 6:0.516613 7:1 
16384 1:0.012 2:0.0952508 3:0.0024398 4:0.0088426 5:0.00713266 6:0.065316 7:1 
5143.605385857836 1:0.136 2:0.0616295 3:0.0037982 4:0.0121831 5:0.00645728 6:0.794895 7:1 
190.4282536992131 1:0.024 2:0.888963 3:0.790255 4:0.105915 5:0.0645536 6:0.806078 7:1 
16384 1:0.004 2:0.0563876 3:0.00317957 4:0.0110041 5:0.00839831 6:0.867585 
16384 1:0.02 2:0.065596 3:0.00430284 4:0.0119866 5:0.0107978 6:0.332091 
16384 1:0.008 2:0.076 3:0.005776 4:0.00275103 5:0.00401933 6:0.211669 7:1 
16384 1:0.02 2:0.126701 3:0.0160532 4:0.0204362 5:0.00970788 6:0.593598 
16384 4:0.0151307 5:0.0110449 6:0.446515 7:1 
16384 4:0.0208292 5:0.0143092 6:0.534603 7:1 
16384 1:0.004 2:0.100887 3:0.0101783 4:0.0086461 5:0.00421425 6:0.297731 
16384 4:0.0125761 5:0.0111657 6:0.795219 7:1 
16384 4:0.0194537 5:0.0052081 6:0.799514 7:1 
16384 1:0.004 2:0.0852041 3:0.00725974 4:0.0111351 5:0.00712991 6:0.465883 
16384 1:0.004 2:0.0747959 3:0.00559442 4:0.00569857 5:0.00603723 6:0.235494 7:1 
16384 1:0.02 2:0.0947676 3:0.0089809 4:0.0117901 5:0.00460685 6:0.463533 
4583.532161490305 1:0.284 2:0.156611 3:0.024527 4:0.0962861 5:0.0269026 6:0.805916 7:1 
198.5261251214596 1:1 2:0.133724 3:0.394622 4:0.109452 5:0.0626043 6:0.806078 7:1 
820.9405743702856 1:0.176 2:0.0684325 3:0.00468301 4:0.0536451 5:0.0109351 6:0.804619 7:1 
1618.748410378145 1:0.14 2:0.0827 3:0.0572501 4:0.0210257 5:0.00911487 6:0.800081 7:1 
16384 1:0.004 2:0.302092 3:0.0912593 4:0.00628807 5:0.00317373 6:0.227715 7:1 
7329.367864855918 4:0.0231873 5:0.00960905 6:0.80081 7:1 
16384 1:0.004 2:0.314092 3:0.0986535 4:0.00982511 5:0.00669064 6:0.278282 7:1 
16384 1:0.004 2:0.19662 3:0.0386593 4:0.00530556 5:0.00501867 6:0.219611 7:1 
16384 1:0.004 2:0.0695918 3:0.00484301 4:0.0182747 5:0.0135927 6:0.111183 7:1 
16384 1:0.004 2:0.109592 3:0.0120104 4:0.0088426 5:0.00603448 6:0.157861 
16384 1:0.004 2:0.0540915 3:0.00292589 4:0.0174887 5:0.0186718 6:0.110859 7:1 
1.091627646887116 1:0.06 2:0.661314 3:0.772507 4:0.0626842 5:0.0334011 6:0.455348 7:1 
16384 1:0.008 2:0.0533979 3:0.00285134 4:0.0275103 5:0.0115446 6:0.22269 7:1 
16384 1:0.016 2:0.0522676 3:0.0027319 4:0.0100216 5:0.00861245 6:0.294652 7:1 
16384 1:0.008 2:0.249446 3:0.0583042 4:0.0487981 5:0.0115391 6:0.405105 
16384 1:0.016 2:0.0672976 3:0.00952935 4:0.0117901 5:0.00759115 6:0.351135 7:1 
1098.716889415674 1:0.136 2:0.284634 3:0.0104731 4:0.0685793 5:0.0326955 6:0.467828 
3239.031469596103 1:0.004 2:0.358796 3:0.128734 4:0.04382 5:0.0549391 6:0.549433 7:1 
16384 1:0.008 2:0.056 3:0.003136 4:0.0159167 5:0.0119482 6:0.15389 7:1 
16384 1:0.004 2:0.128388 3:0.0164834 4:0.0135587 5:0.00507358 6:0.37034 
4928.041947196383 1:0.004 2:0.252388 3:0.0636995 4:0.0229908 5:0.0129777 6:0.286062 7:1 
16384 4:0.0100216 5:0.00754722 6:0.104781 7:1 
16384 4:0.0088426 5:0.0074978 6:0.244003 
16384 4:0.0271173 5:0.0064161 6:0.573825 7:1 
4847.665015422403 1:1 2:0.203067 3:0.000426998 4:0.0324884 5:0.0177822 6:0.602188 
16384 4:0.0137552 5:0.00574621 6:0.143841 
16384 1:0.004 2:0.044 3:0.001936 4:0.0135587 5:0.00633099 6:0.512885 
3048.697668059161 1:0.008 2:0.568 3:0.322624 4:0.00275103 5:0.00496101 6:0.0324149 7:1 
16384 1:0.004 2:0.108 3:0.011664 4:0.000196502 5:0.00334395 6:0.00696921 7:1 
16384 1:0.008 2:0.155842 3:0.000812236 4:0.0200432 5:0.0106304 6:0.343031 
16384 1:1 2:0.0781479 3:8.20307e-05 4:0.0318334 5:0.0154459 6:0.0897083 
16384 4:0.0113971 5:0.0134033 6:0.360292 7:1 
16384 1:0.004 2:0.052 3:0.002704 4:0.0178817 5:0.0087964 6:0.262156 7:1 
13997.99397254845 1:0.112 2:0.0591115 3:0.00292907 4:0.00628807 5:0.0082226 6:0.518152 7:1 
16384 1:0.036 2:0.0667731 3:0.00445865 4:0.0225978 5:0.00859873 6:0.68671 
12836.14651649214 4:0.0308509 5:0.0336729 6:0.0810373 
34.59753033649297 1:0.124 2:0.391523 3:0.216457 4:0.0595402 5:0.0639606 6:0.342382 7:1 
16384 1:0.008 2:0.0664437 3:0.00441476 4:0.00962861 5:0.00617725 6:0.229173 
16384 1:0.016 2:0.0852396 3:0.00726579 4:0.00805659 5:0.00924116 6:0.604943 7:1 
16384 1:0.004 2:0.118796 3:0.0141125 4:0.00805659 5:0.00566659 6:0.130632 7:1 
16384 4:0.0084496 5:0.00761311 6:0.142464 7:1 
16384 4:0.0174887 5:0.0149599 6:0.0883306 7:1 
4766.276421082356 1:0.016 2:0.312911 3:0.0100163 4:0.1236 5:0.0562376 6:0.579984 7:1 
16384 1:0.004 2:0.106796 3:0.0114054 4:0.0167027 5:0.00975456 6:0.205429 
14919.22315857049 1:0.004 2:0.048 3:0.002304 4:0.0129691 5:0.0137986 6:0.420259 
16384 1:0.14 2:0.125525 3:0.0157565 4:0.0715268 5:0.012629 6:0.602431 
16384 1:0.22 2:0.0614461 3:0.00377562 4:0.00334054 5:0.00214419 6:0.314263 
5130.881972459813 1:0.112 2:0.0844105 3:0.00712513 4:0.00707408 5:0.00391226 6:0.59684 
9556.595806374211 1:1 2:0.117956 3:0.000589825 4:0.0184712 5:0.00598781 6:0.3906 7:1 
16384 4:0.0233838 5:0.0201817 6:0.324959 7:1 
16384 1:0.004 2:0.0735918 3:0.00541575 4:0.0233838 5:0.0119015 6:0.268314 7:1 
16384 4:0.0170957 5:0.00747859 6:0.567666 7:1 
16384 4:0.0131657 5:0.00609488 6:0.857374 
16384 4:0.0172922 5:0.00967769 6:0.845219 
16384 4:0.0280998 5:0.00664397 6:0.830551 
16384 1:0.068 2:0.0829516 3:0.00113222 4:0.0195847 5:0.00909291 6:0.565559 
16384 1:0.004 2:0.0568874 3:0.00323618 4:0.0106111 5:0.0101224 6:0.255754 
16384 1:0.004 2:0.124 3:0.015376 4:0.00628807 5:0.00684439 6:0.0329011 7:1 
16384 1:0.004 2:0.0467959 3:0.00218985 4:0.00628807 5:0.00812376 6:0.189546 7:1 
16384 1:0.3 2:0.140694 3:0.00403278 4:0.0508941 5:0.0273117 6:0.0309562 7:1 
16384 1:0.024 2:0.0666972 3:0.00444851 4:0.0110696 5:0.00698715 6:0.877147 
6757.514393866463 1:0.028 2:0.181889 3:0.0255406 4:0.0363529 5:0.0139441 6:0.0303079 7:1 
12378.49567498625 1:0.684 2:0.0557924 3:7.9424e-05 4:0.00609157 5:0.00703657 6:0.0378444 7:1 
16384 1:0.004 2:0.126796 3:0.0160772 4:0.0157202 5:0.00701186 6:0.304376 
16384 1:0.012 2:0.0535012 3:0.000337235 4:0.0304579 5:0.0151768 6:0.0303079 7:1 
391.4487451681524 1:0.692 2:0.362397 3:0.131332 4:0.0943211 5:0.0589749 6:0.762966 
16384 1:0.016 2:0.0641938 3:0.00694327 4:0.00399555 5:0.0051175 6:0.421637 
16384 1:0.004 2:0.0523876 3:0.00274446 4:0.00569857 5:0.00556776 6:0.211669 7:1 
1717.853412422662 1:1 2:0.179107 3:0.0320795 4:0.142071 5:0.0374423 6:0.714992 7:1 
16384 4:0.00648457 5:0.00689655 6:0.310292 7:1 
16384 1:0.008 2:0.103197 3:0.0106497 4:0.0125761 5:0.00893092 6:0.182172 7:1 
16384 4:0.0123796 5:0.0100922 6:0.223015 7:1 
16384 4:0.0104146 5:0.00867285 6:0.23282 
16384 4:0.0184712 5:0.0139194 6:0.279498 
16384 1:0.004 2:0.0566196 3:0.00320578 4:0.00687758 5:0.0104903 6:0.229335 7:1 
16384 1:0.012 2:0.105138 3:0.0110541 5:0.00319844 6:0.00575365 7:1 
16384 1:0.04 2:0.0483444 3:0.00233718 4:0.0115936 5:0.00907369 6:0.372123 7:1 
5617.77039069777 1:0.424 2:0.178334 3:0.00795875 4:0.122748 5:0.0449017 6:0.457618 7:1 
1280.17285818598 1:0.356 2:0.177013 3:0.0144072 4:0.0626842 5:0.0144602 6:0.624554 
16384 1:0.008 2:0.0672396 3:0.00452116 4:0.00786009 5:0.00681144 6:0.807536 
7328.519816715461 1:0.036 2:0.177738 3:0.00531955 4:0.125892 5:0.0337772 6:0.763695 
886.1372862165234 1:0.004 2:0.404388 3:0.163529 4:0.04382 5:0.0359488 6:0.480794 
16384 1:0.004 2:0.0507959 3:0.00258022 4:0.0104146 5:0.00769548 6:0.15235 7:1 
16384 1:0.06 2:0.0878475 3:0.0121032 4:0.00648457 5:0.00762958 6:0.0271475 
16384 1:0.012 2:0.244502 3:0.0576625 4:0.0353704 5:0.0107072 6:0.455997 
16384 1:0.004 2:0.064 3:0.004096 4:0.0119866 5:0.0102268 6:0.275284 7:1 
16384 1:0.008 2:0.0913979 3:0.00835358 4:0.00982511 5:0.00773117 6:0.249676 7:1 
16384 1:0.04 2:0.0772638 3:0.00595452 4:0.0267243 5:0.00741269 6:0.768395 
16384 1:0.008 2:0.0622875 3:0.00385122 4:0.0231218 5:0.0151686 6:0.110697 7:1 
741.5558045091483 1:1 2:0.14477 3:0.0430909 4:0.291347 5:0.0888892 6:0.696677 7:1 
16384 4:0.0255453 5:0.0164397 6:0.492464 7:1 
16384 4:0.0135587 5:0.00419778 6:0.383063 
16384 1:0.004 2:0.111156 3:0.0123556 4:0.0153272 5:0.00610861 6:0.211994 
16384 4:0.00648457 5:0.011012 6:0.337358 
16384 4:0.00943211 5:0.0108802 6:0.380227 
16384 1:0.004 2:0.0406196 3:0.00164995 4:0.0224013 5:0.0080414 6:0.296515 
16384 1:0.244 2:0.0886255 3:0.00656357 4:0.0143447 5:0.00986438 6:0.164344 7:1 
16384 4:0.0125761 5:0.00764606 6:0.626418 
16384 1:0.004 2:0.0740915 3:0.00548955 4:0.0129691 5:0.00699813 6:0.681524 7:1 
16384 1:0.02 2:0.0994478 3:0.00988987 4:0.0220083 5:0.00813475 6:0.82188 
16384 1:0.004 2:0.118092 3:0.0139456 4:0.0121831 5:0.00316 6:0.311669 7:1 
16384 1:0.004 2:0.0907959 3:0.00824389 4:0.0149342 5:0.008736 6:0.354376 7:1 
16384 4:0.0198467 5:0.00875247 6:0.134684 
16384 1:0.004 2:0.08 3:0.0064 4:0.00786009 5:0.00472216 6:0.82731 
16384 1:0.012 2:0.0532278 3:0.00283319 4:0.0117901 5:0.00655337 6:0.270746 
2234.084766693079 1:0.068 2:0.388478 3:0.150915 4:0.100413 5:0.10266 6:0.656321 
16384 1:0.524 2:0.0537516 3:0.00288923 4:0.00995611 5:0.00298155 6:0.896353 
16.31431346846447 1:0.004 2:1 3:1 4:0.0729023 5:0.0612893 6:0.805348 7:1 
16384 1:0.004 2:0.0692041 3:0.00478921 4:0.00766359 5:0.0074676 6:0.0694489 7:1 
16384 1:0.06 2:0.0777852 3:0.00605054 4:0.00707408 5:0.0051175 6:0.250567 7:1 
16384 1:0.02 2:0.0567197 3:0.00321712 4:0.0135587 5:0.0136888 6:0.0642626 7:1 
16384 1:0.012 2:0.0552568 3:0.00273728 4:0.00353704 5:0.00642708 6:0.0534036 7:1 
16384 1:0.02 2:0.0751353 3:0.00564532 4:0.0204362 5:0.00737975 6:0.451378 7:1 
6943.004796410181 1:0.128 2:0.06174 3:0.000518984 4:0.0141482 5:0.011907 6:0.297974 
9468.88753793863 1:1 2:0.0760109 3:0.00609621 4:0.0121831 5:0.00426093 6:0.441086 
544.1586015894768 1:0.36 2:0.0744874 3:0.00554838 4:0.0127071 5:0.00733582 6:0.858995 
16384 4:0.0206327 5:0.0207308 6:0.217585 
16384 4:0.0341914 5:0.0238908 6:0.164344 
16384 1:0.012 2:0.161007 3:0.0259234 4:0.0956966 5:0.0278553 6:0.543598 
1269.238127781379 1:0.004 2:0.284388 3:0.0808763 4:0.044999 5:0.0128706 6:0.715883 
16384 1:0.004 2:0.132 3:0.017424 4:0.0117901 5:0.00764331 6:0.0910049 7:1 
16384 1:0.008 2:0.0628569 3:0.00395099 4:0.00727058 5:0.00804415 6:0.478363 7:1 
16384 1:0.028 2:0.0716821 3:0.00513833 4:0.0113971 5:0.00717933 6:0.524473 7:1 
16384 1:0.008 2:0.0725306 3:0.00526069 4:0.0129691 5:0.00505711 6:0.25859 
16384 1:0.068 2:0.05728 3:0.003281 4:0.0171612 5:0.00774764 6:0.842382 
16384 1:0.008 2:0.0637769 3:0.00406749 4:0.00294753 5:0.00568307 6:0.102593 7:1 
4886.839864933349 1:0.004 2:0.0455918 3:0.00207861 4:0.0151307 5:0.00556776 6:0.797245 7:1 
16384 1:0.016 2:0.0597959 3:0.00357555 4:0.0091046 5:0.00643806 6:0.892869 
16384 1:0.004 2:0.133204 3:0.0177433 4:0.000786009 5:0.00379969 6:0.0491086 7:1 
16384 1:1 2:0.0876775 3:0.00768734 4:0.0234493 5:0.01057 6:0.252269 
16384 1:0.036 2:0.0817458 3:0.00668238 4:0.0110041 5:0.00921096 6:0.227391 7:1 
16384 1:0.004 2:0.117592 3:0.0138278 4:0.00615707 5:0.00534538 6:0.175608 7:1 
1387.325488781945 1:0.124 2:0.17503 3:0.00208965 4:0.0314404 5:0.0274187 6:0.0246353 7:1 
16384 1:0.004 2:0.0806196 3:0.00649952 4:0.00609157 5:0.00676752 6:0.230065 7:1 
13414.37162530044 4:0.0151307 5:0.0200088 6:0.749676 
16384 4:0.0112006 5:0.0162475 6:0.131361 7:1 
11564.54006848989 1:0.028 2:0.117485 3:0.0815246 4:0.0300648 5:0.0106715 6:0.592382 7:1 
16384 1:0.004 2:0.0883876 3:0.00781237 4:0.0135587 5:0.00673457 6:0.190357 7:1 
16384 1:0.004 2:0.122092 3:0.0149063 4:0.0106111 5:0.00410444 6:0.3547 7:1 
16384 1:0.064 2:0.0485752 3:0.00235955 4:0.00445405 5:0.00437074 6:0.4359 
16384 4:0.0172922 5:0.00637492 6:0.523096 
16384 1:0.008 2:0.0826196 3:0.006826 4:0.000786009 5:0.00384637 6:0.0531605 7:1 
16384 4:0.0186677 5:0.00765978 6:0.689708 7:1 
16384 1:0.004 2:0.12 3:0.0144 4:0.0137552 5:0.0118164 6:0.00705024 7:1 
16384 1:0.016 2:0.146346 3:0.00252847 4:0.0225978 5:0.0150917 6:0.0128039 7:1 
16384 1:0.02 2:0.131145 3:0.00060117 4:0.0104146 5:0.0097271 6:0.110535 7:1 
9302.701809133174 1:0.116 2:0.0480798 3:0.00253897 4:0.0161132 5:0.0121596 6:0.056483 7:1 
16384 1:0.004 2:0.084 3:0.007056 4:0.00314404 5:0.00653141 6:0.0705835 7:1 
16384 4:0.0170957 5:0.00742917 6:0.0641005 7:1 
349.5290553789549 1:0.008 2:0.368754 3:0.362714 4:0.0479466 5:0.0194515 6:0.562804 
13553.06732923704 1:1 2:0.121535 3:0.00149375 4:0.00530556 5:0.00387656 6:0.0328201 
16384 1:0.004 2:0.120388 3:0.0144932 4:0.0102181 5:0.00477158 6:0.379498 7:1 
16384 1:0.004 2:0.124194 3:0.0154241 4:0.0112006 5:0.00783275 6:0.0512156 7:1 
16384 1:0.08 2:0.0743652 3:0.00553018 4:0.0087771 5:0.00358555 6:0.763128 
16384 4:0.0237113 5:0.00995772 6:0.0614263 
10732.26868833468 1:0.004 2:0.221592 3:0.0491029 4:0.0129691 5:0.00616901 6:0.147569 7:1 
14707.61056377491 1:0.308 2:0.0653905 3:0.00427591 4:0.0241698 5:0.0104052 6:0.174473 7:1 
3879.27148490369 1:0.076 2:0.396564 3:0.0130187 4:0.0863955 5:0.0410691 6:0.621961 7:1 
4939.919038166021 1:0.004 2:0.290796 3:0.0845622 4:0.0235803 5:0.0101664 6:0.48906 7:1 
16384 1:0.004 2:0.14 3:0.0196 4:0.0261348 5:0.00917252 6:0.0350081 
16384 1:0.06 2:0.0537944 3:0.00289384 4:0.00943211 5:0.00859324 6:0.0602917 7:1 
16384 1:0.024 2:0.117694 4:0.0235803 5:0.0168653 6:0.0706645 7:1 
16384 1:0.004 2:0.118092 3:0.0139456 4:0.000786009 5:0.00266857 6:0.0731767 7:1 
16384 4:0.00766359 5:0.00557874 6:0.264344 
16384 4:0.0117901 5:0.010861 6:0.129417 7:1 
16384 1:0.008 2:0.0848874 3:0.00720587 4:0.00825309 5:0.00792884 6:0.28201 7:1 
16384 1:0.008 2:0.0886196 3:0.00785343 4:0.00962861 5:0.00666593 6:0.375851 
16384 1:0.004 2:0.0815918 3:0.00665722 4:0.0157202 5:0.00761586 6:0.309724 
16384 1:0.004 2:0.0495918 3:0.00245934 4:0.000982511 5:0.00295959 6:0.0883306 7:1 
3018.166550574181 1:1 2:0.234964 3:0.00262888 4:0.0501081 5:0.0411844 6:0.0580227 7:1 
11428.0958620932 1:0.244 2:0.233093 3:0.0543326 4:0.0740814 5:0.0259993 6:0.579173 7:1 
16384 1:0.008 2:0.104444 3:0.0109085 4:0.00373354 5:0.00355535 6:0.0465964 7:1 
16384 1:0.008 2:0.0521938 3:0.00272419 4:0.0196502 5:0.0081622 6:0.562966 
16384 4:0.0261348 5:0.0114101 6:0.634684 
16384 1:0.012 2:0.0850969 3:0.00929849 4:0.0178817 5:0.0121458 6:0.104457 
16384 1:0.016 2:0.163877 3:0.00339261 4:0.0163097 5:0.00821436 6:0.156726 7:1 
16384 4:0.0184712 5:0.00933725 6:0.483387 
16384 4:0.0123796 5:0.0104519 6:0.435413 7:1 
16384 1:0.036 2:0.0696084 3:0.000174908 4:0.040676 5:0.0229546 6:0.0720421 
16384 1:0.064 2:0.0770004 3:0.000177197 4:0.0208292 5:0.00638315 6:0.0780389 
16384 1:1 2:0.118673 3:0.00180795 4:0.0788629 5:0.0239485 6:0.133225 
1457.105670239102 1:0.508 2:0.220307 3:0.00816566 4:0.0396935 5:0.0226609 6:0.420421 7:1 
14383.06759227305 1:1 2:0.0821189 3:0.00648481 4:0.0744744 5:0.033736 6:0.465883 7:1 
16384 4:0.00687758 5:0.00369537 6:0.26564 7:1 
16384 1:0.012 2:0.100932 3:0.00442359 4:0.0135587 5:0.0113497 6:0.0253647 
16384 1:0.004 2:0.0606196 3:0.00367474 4:0.0104146 5:0.0069295 6:0.382172 7:1 
16384 4:0.0108731 5:0.0189573 6:0.86329 
16384 4:0.0131657 5:0.011292 6:0.357293 7:1 
16384 4:0.00668108 5:0.00360202 6:0.280794 
16384 1:1 2:0.101896 3:0.0103827 4:0.0145412 5:0.00943883 6:0.0964344 7:1 
16384 1:0.032 2:0.136247 3:0.0183228 4:0.044737 5:0.020643 6:0.069611 7:1 
16384 1:0.004 2:0.0545229 3:0.00297274 4:0.0183402 5:0.0125522 6:0.788088 
16384 1:0.004 2:0.137204 3:0.018825 4:0.0125761 5:0.00829398 6:0.13201 7:1 
16384 1:0.02 2:0.075819 3:0.00574852 4:0.00668108 5:0.00562267 6:0.196434 7:1 
16384 1:0.008 2:0.0927959 3:0.00876677 4:0.0121831 5:0.00751153 6:0.229254 7:1 
16384 1:0.004 2:0.0735918 3:0.00541575 4:0.0393005 5:0.0140896 6:0.255997 
5739.032244019405 1:0.004 2:0.361592 3:0.130749 4:0.0341914 5:0.0217274 6:0.191167 
1051.215450524241 1:0.112 2:0.135025 3:0.0334019 4:0.0923561 5:0.00991379 6:0.711507 
16384 4:0.0200432 5:0.00892818 6:0.153566 
16384 4:0.0224013 5:0.0183643 6:0.217828 7:1 
6988.441085624174 1:1 2:0.123095 3:0.00142519 4:0.178162 5:0.070643 6:0.686386 7:1 
16384 4:0.0125761 5:0.01127 6:0.263614 
16384 4:0.0190607 5:0.00846694 6:0.574068 7:1 
16384 1:0.008 2:0.0635541 3:0.00390505 4:0.0155237 5:0.00774764 6:0.10389 7:1 
16384 4:0.00766359 5:0.00711619 6:0.177229 7:1 
134.1462866688976 1:0.136 2:0.512809 3:0.750062 4:0.103164 5:0.0426752 6:0.31799 7:1 
3601.288945722427 1:0.352 2:0.178153 3:0.0587344 4:0.2884 5:0.0642845 6:0.663533 7:1 
16384 1:0.004 2:0.0427959 3:0.00183149 4:0.00923561 5:0.00841753 6:0.274311 7:1 
16384 1:0.052 2:0.0524265 3:0.00274854 4:0.0155237 5:0.00692401 6:0.493274 7:1 
4359.639614703514 1:0.796 2:0.0465019 3:0.00216242 5:0.00300077 6:0.0116694 7:1 
16384 1:0.008 2:0.117315 3:0.001192 4:0.0229908 5:0.0132934 6:0.0305511 
16384 1:0.004 2:0.130092 3:0.0169238 4:0.0170957 5:0.0112948 6:0.0800648 7:1 
16384 1:0.004 2:0.0740915 3:0.00548955 4:0.00707408 5:0.00559796 6:0.127715 7:1 
16384 1:0.008 2:0.0708874 3:0.00502502 4:0.0155237 5:0.00912311 6:0.662399 
16384 1:0.012 2:0.0856901 3:0.0073428 4:0.0113971 5:0.00655063 6:0.748136 
16384 1:0.024 2:0.0562796 3:0.00316739 4:0.00805659 5:0.00667417 6:0.587358 
217.3891277753809 1:0.004 2:0.250796 3:0.0628986 4:0.0235803 5:0.0102405 6:0.44765 7:1 
16384 1:0.052 2:0.157609 3:0.000691149 4:0.0377284 5:0.026175 6:0.0481361 7:1 
16384 1:0.04 2:0.147425 3:4.21672e-06 4:0.047488 5:0.0250467 6:0.0817666 7:1 
16384 4:0.0294753 5:0.0398501 6:0.163452 7:1 
16384 1:0.016 2:0.0520917 3:0.00312799 4:0.0147377 5:0.00962827 6:0.102431 7:1 
120.9178259985448 1:0.008 2:0.576796 3:0.869999 4:0.0609157 5:0.0395152 6:0.415559 7:1 
16384 1:0.004 2:0.262796 3:0.0690617 4:0.0255453 5:0.0182517 6:0.145462 7:1 
16384 4:0.0174887 5:0.0109159 6:0.526985 
573.9078540229865 1:0.336 2:0.0676099 3:3.49049e-05 4:0.0141482 5:0.00493631 6:0.242301 
16384 1:0.432 2:0.0733362 3:0.0053782 4:0.0102181 5:0.00387656 6:0.755105 
1165.800520258539 1:1 2:0.163487 3:0.00100369 4:0.0585577 5:0.0255793 6:0.221556 7:1 
16384 1:0.024 2:0.100004 3:0.0100009 4:0.0208292 5:0.0102323 6:0.130389 7:1 
16384 1:0.004 2:0.0700915 3:0.00491282 4:0.0218118 5:0.00971338 6:0.0971637 7:1 
16384 1:0.004 2:0.0728874 3:0.00531257 4:0.00786009 5:0.00823907 6:0.0658023 7:1 
16384 1:0.008 2:0.0551918 3:1.6e-05 4:0.0239733 5:0.0101444 6:0.510049 
16384 1:0.008 2:0.0723098 3:0.00522871 4:0.0110041 5:0.0112865 6:0.0880065 7:1 
16384 1:0.008 2:0.0478416 3:0.00243391 4:0.0117901 5:0.0101417 6:0.342058 7:1 
16384 1:0.064 2:0.0621033 3:0.000728285 4:0.0178817 5:0.0127443 6:0.0541329 
16384 4:0.0361564 5:0.0177356 6:0.353241 7:1 
16384 4:0.00537106 5:0.007226 6:0.241086 
16384 1:0.024 2:0.0540802 3:0.00271445 4:0.0141482 5:0.00686635 6:0.0901135 7:1 
16384 1:0.008 2:0.105489 3:0.011128 4:0.0086461 5:0.00566934 6:0.0747164 7:1 
16384 1:0.076 2:0.0552683 3:0.00305459 4:0.0200432 5:0.0083434 6:0.442707 
255.4705608203346 1:0.024 2:0.29278 3:0.298785 4:0.0487981 5:0.0217521 6:0.324068 
16384 1:0.008 2:0.0613559 3:0.00357428 4:0.0448025 5:0.017645 6:0.548379 
16384 1:0.004 2:0.112 3:0.012544 4:0.00137552 5:0.00290468 6:0.112966 7:1 
4312.02558024393 1:0.004 2:0.258092 3:0.0666112 4:0.0208292 5:0.00303371 6:0.652431 7:1 
16384 1:0.02 2:0.0590733 3:0.00348966 4:0.00727058 5:0.00606468 6:0.222447 
16384 1:0.004 2:0.0652041 3:0.00425158 4:0.0275103 5:0.0112014 6:0.0554295 
16384 1:0.008 2:0.0993775 3:0.01176 4:0.0218118 5:0.00922469 6:0.121556 7:1 
16384 1:0.004 2:0.173204 3:0.0299997 4:0.0151307 5:0.0077092 6:0.541977 
9087.671282331163 1:0.232 2:0.0617524 3:0.00381336 4:0.00805659 5:0.00368438 6:0.518152 
16384 1:0.004 2:0.0547959 3:0.00300259 4:0.0119866 5:0.0139935 6:0.258428 7:1 
16384 1:0.008 2:0.0714895 3:0.00511074 4:0.0117901 5:0.00835164 6:0.401216 7:1 
6073.780929776545 1:0.016 2:0.0892404 3:0.00796385 4:0.0292788 5:0.0142598 6:0.485332 
7439.312015164933 1:0.004 2:0.113204 3:0.0128152 4:0.0100216 5:0.00683066 6:0.461912 7:1 
13731.71006802895 1:0.048 2:0.0979379 3:0.00959183 4:0.0147377 5:0.00661926 6:0.797002 
16384 1:0.976 2:0.059306 3:0.0035172 4:0.00353704 5:0.00676477 6:0.093436 7:1 
16384 1:0.016 2:0.0889208 3:0.00790691 4:0.00491256 5:0.00644355 6:0.40235 
16384 1:0.008 2:0.0804437 3:0.00647119 4:0.0106111 5:0.0116736 6:0.0640194 7:1 
16384 1:0.008 2:0.0638367 3:0.00407512 4:0.00491256 5:0.00589172 6:0.129092 7:1 
16384 4:0.0178817 5:0.0127855 6:0.0858995 
16384 4:0.0117901 5:0.0151988 6:0.456321 7:1 
3360.234474946836 1:0.22 2:0.0689473 3:0.000336623 4:0.0178817 5:0.0101252 6:0.23363 7:1 
16384 4:0.00786009 5:0.00513947 6:0.346921 
3098.391401760635 1:0.036 2:0.0530384 3:0.00281308 4:0.0158512 5:0.0184686 6:0.131686 
16384 1:0.052 2:0.0671376 3:0.00450746 4:0.0104146 5:0.00772293 6:0.315559 
1461.329974884171 1:0.008 2:0.112531 3:0.0136278 4:0.0267243 5:0.0122007 6:0.18752 
16384 1:0.016 2:0.0494437 3:0.00244468 4:0.00707408 5:0.00636668 6:0.177796 7:1 
16384 1:0.024 2:0.0677465 3:0.00458959 4:0.0231873 5:0.00843125 6:0.553485 7:1 
16384 1:0.064 2:0.0637725 3:0.00388623 4:0.00504356 5:0.00617175 6:0.123015 
16384 4:0.00943211 5:0.00623215 6:0.0965964 7:1 
16384 1:1 2:0.139136 3:0.0162263 4:0.0675968 5:0.019402 6:0.477229 7:1 
16384 1:0.008 2:0.267356 3:0.107295 4:0.0143447 5:0.00728091 6:0.151864 7:1 
1714.695350010807 1:1 2:0.171133 3:0.0292864 4:0.0835135 5:0.0358665 6:0.487034 
16384 1:0.004 2:0.108 3:0.011664 4:0.0257418 5:0.011163 6:0.110535 7:1 
11867.25287477522 1:0.004 2:0.318092 3:0.101182 4:0.0102181 5:0.00625412 6:0.107212 
16384 4:0.0241698 5:0.0121184 6:0.0811183 7:1 
16384 1:0.004 2:0.266796 3:0.07118 4:0.0245628 5:0.0173073 6:0.110049 7:1 
16384 1:0.004 2:0.248 3:0.061504 4:0.0194537 5:0.00876894 6:0.34846 7:1 
16384 1:0.004 2:0.0855918 3:0.00732595 4:0.0224013 5:0.0101801 6:0.0790924 7:1 
16384 1:0.016 2:0.237978 3:0.0566335 4:0.0807624 5:0.028624 6:0.491329 
16384 1:0.276 2:0.0706354 3:0.00498936 4:0.00117901 5:0.00336866 6:0.10624 7:1 
24.84668396568147 1:1 2:0.994621 3:0.989271 4:0.20338 5:0.114696 6:0.670746 7:1 
16384 1:0.004 2:0.202796 3:0.0411262 4:0.0247593 5:0.0124616 6:0.0968395 7:1 
16384 1:0.004 2:0.289592 3:0.0838634 4:0.00792559 5:0.00586976 6:0.0431118 
11445.7515421034 1:0.004 2:0.254796 3:0.0649209 4:0.0214187 5:0.0150835 6:0.112804 7:1 
16384 1:0.004 2:0.0860915 3:0.00741175 4:0.0194537 5:0.0102323 6:0.233225 7:1 
12635.81286354138 1:0.012 2:0.340185 3:0.115726 4:0.0701513 5:0.0242697 6:0.5094 
16384 1:0.016 2:0.171555 3:0.0243122 4:0.0389074 5:0.0103778 6:0.253241 
16384 4:0.0147377 5:0.00889523 6:0.0557536 7:1 
16384 1:0.004 2:0.064 3:0.004096 4:0.0271173 5:0.0102817 6:0.224878 7:1 
16384 1:0.028 2:0.0804002 3:0.000186591 4:0.0141482 5:0.0105068 6:0.0223663 7:1 
14686.31912586333 1:0.004 2:0.3 3:0.09 4:0.0363529 5:0.0313804 6:0.388655 7:1 
16384 1:0.044 2:0.0593108 3:0.00351777 4:0.0198467 5:0.00949923 6:0.0918963 7:1 
16384 1:0.004 2:0.274796 3:0.0755128 4:0.0208292 5:0.00711893 6:0.279579 7:1 
16384 1:0.012 2:0.116758 3:0.0194237 4:0.0312439 5:0.00987536 6:0.0998379 
16384 4:0.00412655 5:0.00509005 6:0.0451378 7:1 
3693.747873643748 1:0.072 2:0.156818 3:0.00610053 4:0.045654 5:0.0126785 6:0.138088 7:1 
16384 1:0.008 2:0.154667 3:0.0239218 4:0.0216152 5:0.0121047 6:0.0865478 7:1 
16384 1:0.02 2:0.120476 3:0.0145146 4:0.0387109 5:0.0101005 6:0.341005 
16384 1:0.004 2:0.250796 3:0.0628986 4:0.0225978 5:0.0170135 6:0.183468 7:1 
16384 4:0.00628807 5:0.00563639 6:0.125284 
5743.2926932077 1:0.028 2:0.152012 3:0.00262421 4:0.156285 5:0.0223946 6:0.154862 
3430.025025111353 1:0.024 2:0.0854931 3:0.00730906 4:0.0161132 5:0.00972436 6:0.848055 
-16384 1:0.004 2:0.0467959 3:0.00218985 4:0.00294753 5:0.00374753 6:0.125527 7:1 
-16384 1:0.02 2:0.120131 3:0.00249485 4:0.084365 5:0.0276878 6:0.0555105 7:1 
-16384 1:0.64 2:0.088593 3:0.00108074 4:0.0141482 5:0.0150697 6:0.00729335 7:1 
-16384 1:0.028 2:0.0558548 3:0.000144982 4:0.0448025 5:0.0215764 6:0.0366288 7:1 
-16384 4:0.0662213 5:0.0360861 6:0.0563209 
-16384 4:0.0320299 5:0.0191083 6:0.0269854 
-12139.51719031334 1:1 2:0.0809386 3:3.37946e-06 4:0.090784 5:0.0329261 6:0.181686 
-16384 1:0.004 2:0.0415918 3:0.00172987 4:0.0326194 5:0.0136943 6:0.0736629 
-16384 1:0.004 2:0.0452041 3:0.00204341 4:0.0135587 5:0.0130134 6:0.0295786 7:1 
-16384 1:0.02 2:0.110058 3:0.000132249 4:0.0290823 5:0.0147101 6:0.073825 
-16384 1:0.004 2:0.120218 3:0.00207122 4:0.0157202 5:0.00971887 6:0.0388979 7:1 
-16384 1:0.008 2:0.174423 3:0.00531583 4:0.0104146 5:0.011572 6:0.0264182 7:1 
-16384 1:0.244 2:0.0754471 3:2.82269e-05 4:0.0143447 5:0.0109186 6:0.0526742 7:1 
-16384 1:0.004 2:0.156 3:0.024336 4:0.0104146 5:0.011572 6:0.0425446 7:1 
-16384 4:0.0233838 5:0.0159318 6:0.0996759 7:1 
-16384 4:0.0149342 5:0.0121156 6:0.0680713 7:1 
-16384 1:0.016 2:0.162025 3:0.0138416 4:0.117443 5:0.0208516 6:0.626742 
-9628.167285310965 4:0.0282963 5:0.0106166 6:0.152026 7:1 
-16384 1:0.004 2:0.102796 3:0.014203 4:0.0180782 5:0.0112975 6:0.097893 7:1 
-16384 4:0.0204362 5:0.0116242 6:0.114182 
-16384 1:0.024 2:0.0917041 3:0.0002271 4:0.0262003 5:0.0153196 6:0.152431 7:1 
-16384 1:0.02 2:0.158124 3:0.000255113 4:0.0495841 5:0.015973 6:0.290924 
-16384 1:0.004 2:0.06 3:0.0036 4:0.0084496 5:0.0080716 6:0.0487034 7:1 
-16384 1:0.004 2:0.126887 3:0.0161004 4:0.0170957 5:0.013384 6:0.102431 7:1 
-1062.577581434239 1:0.552 2:0.356146 3:0.0481263 4:0.101395 5:0.0809466 6:0.624068 
-16384 1:0.008 2:0.096 3:0.011452 4:0.0237768 5:0.0191357 6:0.158428 7:1 
-16384 1:0.004 2:0.11219 3:0.0122016 4:0.0200432 5:0.0116626 6:0.13987 7:1 
-16384 1:0.012 2:0.079505 3:5.77092e-05 4:0.0225978 5:0.0132138 6:0.15859 7:1 
-16384 1:0.012 2:0.147516 3:0.0238885 4:0.0606537 5:0.0171261 6:0.45705 
-16384 4:0.00668108 5:0.0115775 6:0.0502431 7:1 
-16384 1:0.004 2:0.2 3:0.04 4:0.0538416 5:0.0209834 6:0.463371 
-16384 1:0.004 2:0.153592 3:0.0235904 4:0.0127726 5:0.00734131 6:0.110049 
-16384 1:0.124 2:0.105292 3:0.00902157 4:0.0500426 5:0.0157753 6:0.479984 7:1 
-16384 1:0.004 2:0.0528874 3:0.00279708 4:0.0157202 5:0.00712991 6:0.153241 
-16384 1:0.008 2:0.16379 3:0.0272043 4:0.0440165 5:0.0176285 6:0.445543 
-16384 4:0.0198467 5:0.011001 6:0.202917 
-16384 1:0.004 2:0.134796 3:0.0181699 4:0.0086461 5:0.00816769 6:0.0884927 7:1 
-16384 1:0.02 2:0.0783685 3:0.000139292 4:0.0327504 5:0.0148089 6:0.340357 
-16384 1:0.004 2:0.178796 3:0.031968 4:0.0188642 5:0.00957885 6:0.201297 7:1 
-16384 1:0.004 2:0.144 3:0.020736 4:0.0292133 5:0.0156271 6:0.326256 7:1 
-16384 1:0.004 2:0.200388 3:0.0401552 4:0.039235 5:0.0189188 6:0.452188 7:1 
-16384 1:0.008 2:0.196053 3:0.037937 4:0.0436235 5:0.0177905 6:0.527147 
-16384 4:0.0174887 5:0.0095157 6:0.24222 
-16384 1:0.012 2:0.0536254 3:0.0028393 4:0.0176852 5:0.00589172 6:0.25 
-16384 1:0.008 2:0.0884437 3:0.00782229 4:0.0365494 5:0.0117066 6:0.516694 7:1 
-16384 4:0.0282308 5:0.00790687 6:0.408995 7:1 
-16384 1:0.02 2:0.0823357 3:0.000595923 4:0.0520076 5:0.0163848 6:0.793598 
-16384 1:0.008 2:0.167287 3:0.0279851 4:0.0198467 5:0.00705304 6:0.335008 7:1 
-16384 1:0.02 2:0.0586685 3:0.00098038 4:0.0161132 5:0.0134225 6:0.327958 
-16384 1:0.004 2:0.0779327 3:0.00185429 4:0.0145412 5:0.0123792 6:0.31483 7:1 
-16384 1:0.016 2:0.0862399 3:0.000165129 4:0.0125761 5:0.0121815 6:0.274878 7:1 
-16384 1:0.012 2:0.123842 3:0.00603915 4:0.0271173 5:0.0105398 6:0.609319 
-16384 1:0.008 2:0.0646667 3:0.0001 4:0.0109386 5:0.00737975 6:0.251864 
-16384 1:0.012 2:0.0779959 3:0.000383311 4:0.0148687 5:0.0101636 6:0.355592 
-16384 1:0.008 2:0.0570493 3:7.00698e-05 4:0.0196502 5:0.0121294 6:0.550162 
-16384 4:0.0121176 5:0.00718757 6:0.382982 
-16384 4:0.0115936 5:0.00978201 6:0.370259 
-16384 4:0.0084496 5:0.00829947 6:0.295138 
-16384 1:0.004 2:0.144 3:0.020736 4:0.00569857 5:0.00646826 6:0.20859 7:1 
-16384 1:0.008 2:0.0875986 3:0.00138415 4:0.00687758 5:0.00382989 6:0.261588 7:1 
-16384 4:0.0110041 5:0.00695146 6:0.419611 
-16384 4:0.00687758 5:0.00603174 6:0.315397 
-16384 1:0.004 2:0.048 3:0.002304 4:0.00432305 5:0.00373655 6:0.269935 
-16384 4:0.00589507 5:0.00817593 6:0.582739 
-16384 4:0.00786009 5:0.00478531 6:0.752269 7:1 
-16384 1:0.004 2:0.0427959 3:0.00183149 4:0.00687758 5:0.00433505 6:0.745219 
-16384 4:0.00569857 5:0.00739348 6:0.642626 7:1 
-16384 4:0.00609157 5:0.00624039 6:0.710859 7:1 
-16384 1:0.012 2:0.0462653 3:0.00214048 4:0.00582957 5:0.00548539 6:0.852026 
-16384 1:0.04 2:0.0753038 3:1.7497e-05 4:0.0290168 5:0.0204673 6:0.0076175 7:1 
-16384 1:0.04 2:0.0753038 3:1.7497e-05 4:0.0290168 5:0.0204673 6:0.0076175 7:1 
-16384 1:0.012 2:0.0706109 3:0.000760681 4:0.0381214 5:0.0193142 6:0.0145867 
-16384 1:0.016 2:0.148046 3:0.0219175 4:0.0196502 5:0.0124396 6:0.00705024 7:1 
-16384 4:0.0516801 5:0.0251098 6:0.0362237 
-16384 1:0.008 2:0.119018 3:0.0020727 4:0.084365 5:0.0276878 6:0.0824959 7:1 
-16384 1:1 2:0.107577 3:1.58419e-05 4:0.0257418 5:0.015229 6:0.026094 
-16384 1:0.004 2:0.164 3:0.026896 4:0.0216152 5:0.0143559 6:0.0272285 7:1 
-16384 1:0.004 2:0.0427959 3:0.00183149 4:0.0288858 5:0.0178975 6:0.0382496 7:1 
-16384 1:0.216 2:0.0702517 3:5.14081e-06 4:0.0141482 5:0.00932078 6:0.0180713 7:1 
-16384 1:0.016 2:0.212069 3:0.0219497 4:0.0151307 5:0.0104409 6:0.0198541 
-16384 1:0.016 2:0.212069 3:0.0984914 4:0.0151307 5:0.0104409 6:0.0205835 
-16384 1:1 2:0.0942682 3:0.000471984 4:0.0383834 5:0.0160938 6:0.0640194 
-16384 1:0.004 2:0.056183 3:0.00315653 4:0.0090391 5:0.00844773 6:0.015154 7:1 
-16384 1:0.112 2:0.0760445 3:4.12133e-06 4:0.0212222 5:0.0099687 6:0.0474878 
-14353.17599950327 1:1 2:0.0793196 3:1.59333e-05 4:0.0218118 5:0.0151741 6:0.0504052 7:1 
-16384 1:0.016 2:0.0500458 3:0.00250458 4:0.0227943 5:0.0139139 6:0.0535656 7:1 
-16384 1:0.004 2:0.189592 3:0.035945 4:0.0224013 5:0.00974632 6:0.0560778 
-16384 1:0.004 2:0.0820915 3:0.00673902 4:0.0163097 5:0.00799473 6:0.0516207 7:1 
-16384 1:1 2:0.148495 3:0.020417 4:0.141285 5:0.0707748 6:0.48363 7:1 
-16384 1:0.316 2:0.0864988 3:0.000388872 4:0.0151307 5:0.00831045 6:0.0559157 7:1 
-16384 4:0.0137552 5:0.0124478 6:0.0506483 7:1 
-16384 1:0.016 2:0.320826 3:0.112093 4:0.0692343 5:0.0217686 6:0.265397 
-16384 1:0.008 2:0.0593389 3:4.25674e-05 4:0.0308509 5:0.0118603 6:0.136953 7:1 
-11683.3535187951 1:1 2:0.122315 3:0.014961 4:0.112596 5:0.0257083 6:0.510778 7:1 
-16384 1:0.02 2:0.150684 3:0.00189231 4:0.0121831 5:0.0104492 6:0.0548622 
-16384 1:0.02 2:0.209742 3:0.0102309 4:0.0225978 5:0.0146442 6:0.105024 
-16384 1:0.064 2:0.0659357 3:2.82927e-05 4:0.0131657 5:0.010386 6:0.060859 7:1 
-16384 1:0.128 2:0.065456 3:3.79551e-05 4:0.0131657 5:0.00954865 6:0.0619125 7:1 
-12882.07992330981 1:0.416 2:0.129497 3:0.0167695 4:0.156023 5:0.0394685 6:0.761102 7:1 
-16384 1:0.008 2:0.0913162 3:0.0152388 4:0.0161132 5:0.0130107 6:0.0773096 7:1 
-10486.08311372274 1:0.508 2:0.139597 3:0.00429866 4:0.127333 5:0.0346804 6:0.632577 
-16384 1:0.504 2:0.150398 3:0.0226197 4:0.0404795 5:0.018249 6:0.202755 7:1 
-16384 1:0.052 2:0.0562202 3:3.62886e-06 4:0.00982511 5:0.00999341 6:0.0480551 7:1 
-1416.601592161457 1:0.356 2:0.169011 3:0.0285648 4:0.148556 5:0.0306913 6:0.753241 7:1 
-16384 1:0.988 2:0.13014 3:0.0169364 4:0.118491 5:0.0297606 6:0.607699 7:1 
-13476.69004599573 4:0.0239733 5:0.0118164 6:0.125365 
-16384 1:0.004 2:0.188 3:0.035344 4:0.00727058 5:0.00826927 6:0.0381686 7:1 
-16384 1:0.016 2:0.135004 3:0.00528121 4:0.0653043 5:0.0189765 6:0.357861 
-16384 1:0.032 2:0.123603 3:0.0231836 4:0.0269863 5:0.0118631 6:0.154295 7:1 
-16384 1:0.012 2:0.0836495 3:0.00699724 4:0.0387109 5:0.0162475 6:0.23128 
-16384 4:0.0799109 5:0.0173787 6:0.480551 
-5494.551888357732 4:0.00491256 5:0.00962278 6:0.0297407 7:1 
-16384 1:0.02 2:0.201459 3:0.00601305 4:0.0286893 5:0.0183478 6:0.185332 7:1 
-16384 1:0.04 2:0.0734662 3:0.00574266 4:0.0188642 5:0.0141939 6:0.122528 7:1 
-16384 4:0.0119866 5:0.0127718 6:0.0777958 7:1 
-16384 1:0.004 2:0.0646196 3:0.00417569 4:0.0182747 5:0.00961454 6:0.120421 7:1 
-16384 1:0.004 2:0.176207 3:0.0341358 4:0.0200432 5:0.0121843 6:0.138412 7:1 
-16384 1:0.048 2:0.0528951 3:6.29499e-07 4:0.00805659 5:0.00870854 6:0.0548622 7:1 
-475.0897053925625 1:0.152 2:0.772403 3:0.823215 4:0.114757 5:0.0550187 6:0.806159 7:1 
-16384 4:0.0284928 5:0.0108665 6:0.199433 
-16384 1:0.008 2:0.112531 3:0.0136278 4:0.0267243 5:0.0122007 6:0.18752 
-16384 1:0.008 2:0.188444 3:0.035511 4:0.0337984 5:0.0163656 6:0.240276 
-16384 1:0.004 2:0.12 3:0.0144 4:0.0151307 5:0.00838733 6:0.110697 7:1 
-1833.286250019934 1:0.152 2:0.796022 3:0.0429713 4:0.108666 5:0.0514331 6:0.806078 7:1 
-16384 1:0.008 2:0.0677077 3:0.00462532 4:0.00353704 5:0.00576817 6:0.0252026 7:1 
-6617.013605761955 1:1 2:0.0788892 3:0.000232517 4:0.0161132 5:0.00769822 6:0.11953 
-16384 1:0.016 2:0.0514662 3:0.00252079 4:0.0133622 5:0.0122557 6:0.0996759 7:1 
-16384 1:0.004 2:0.122796 3:0.0150788 4:0.0131657 5:0.0129585 6:0.0987034 7:1 
-16384 1:0.004 2:0.282796 3:0.0799735 4:0.0330124 5:0.0177877 6:0.255916 7:1 
-16384 1:0.004 2:0.189204 3:0.0357982 4:0.00923561 5:0.00753624 6:0.0712318 7:1 
-16384 1:0.124 2:0.0608211 3:0.000291296 4:0.0220083 5:0.010224 6:0.17966 7:1 
-16384 4:0.0259383 5:0.0643916 6:0.216856 7:1 
-16384 1:0.008 2:0.0629119 3:0.00452161 4:0.0222048 5:0.0113332 6:0.187763 
-16384 1:0.008 2:0.0629119 3:0.00452161 4:0.0106111 5:0.00787667 6:0.0893841 7:1 
-16384 1:0.016 2:0.0539897 3:0.00291489 4:0.00746709 5:0.00953492 6:0.0645867 7:1 
-16384 4:0.0178817 5:0.0110394 6:0.158104 
-16384 1:0.02 2:0.180287 3:0.0775803 4:0.0237768 5:0.0193471 6:0.211912 7:1 
-16384 1:0.008 2:0.0752583 3:0.00642738 4:0.0145412 5:0.0073468 6:0.129579 7:1 
-16384 1:0.008 2:0.226602 3:0.0513485 4:0.0204362 5:0.0113579 6:0.18282 
-16384 1:0.04 2:0.0765716 3:0.00615751 4:0.0188642 5:0.0141939 6:0.168639 7:1 
-16384 4:0.0235803 5:0.00919449 6:0.214911 
-16384 1:0.008 2:0.0630458 3:0.00454954 4:0.0196502 5:0.0104656 6:0.180551 
-16384 1:0.004 2:0.258796 3:0.0669753 4:0.0168992 5:0.00897485 6:0.156645 7:1 
-16384 1:0.084 2:0.0818461 3:6.55527e-05 4:0.0505666 5:0.0196189 6:0.476661 7:1 
-16384 4:0.0215497 5:0.0106468 6:0.205186 7:1 
-16384 1:0.032 2:0.120358 3:0.0144861 4:0.0261348 5:0.0127251 6:0.253079 
-16384 1:0.012 2:0.251592 3:0.0632983 4:0.0451955 5:0.0248435 6:0.438331 7:1 
-16384 1:0.008 2:0.470136 3:0.23928 4:0.0151307 5:0.00850538 6:0.146272 7:1 
-16384 1:0.028 2:0.144901 3:0.0209964 4:0.0583612 5:0.0338568 6:0.568476 
-16384 1:0.004 2:0.0412041 3:0.00169778 4:0.00923561 5:0.00820338 6:0.0893031 7:1 
-16384 1:0.052 2:0.0551941 3:8.8152e-06 4:0.00982511 5:0.00999341 6:0.0966775 7:1 
-16384 1:0.02 2:0.111917 3:0.000998851 4:0.00530556 5:0.00600977 6:0.0520259 7:1 
-16384 1:0.004 2:0.212 3:0.044944 4:0.0333399 5:0.00992203 6:0.333468 7:1 
-16384 1:0.076 2:0.0723755 3:0.00519649 4:0.0683173 5:0.0258374 6:0.694895 7:1 
-16384 1:0.004 2:0.176 3:0.030976 4:0.0137552 5:0.0122062 6:0.141329 7:1 
-16384 1:0.004 2:0.0412041 3:0.00169778 4:0.00510906 5:0.0059027 6:0.0524311 7:1 
-16384 1:0.004 2:0.0455918 3:0.00207861 4:0.0178817 5:0.0115556 6:0.1859 7:1 
-7859.285872074109 4:0.0127726 5:0.00920821 6:0.134198 
-16384 1:0.004 2:0.134092 4:0.0190607 5:0.0117615 6:0.20235 
-16384 1:0.004 2:0.0772041 3:0.00596048 4:0.0090391 5:0.00674555 6:0.0959481 7:1 
-16384 4:0.00550206 5:0.0103256 6:0.058752 7:1 
-16384 1:0.092 2:0.0807974 3:0.00944679 4:0.0444095 5:0.01552 6:0.482091 
-16384 1:0.008 2:0.0633979 3:0.00459113 4:0.0100216 5:0.00759115 6:0.108023 
-16384 1:0.14 2:0.11576 3:0.0101767 4:0.0624877 5:0.0246568 6:0.682253 7:1 
-16384 1:0.196 2:0.0653253 3:4.05137e-06 4:0.0229908 5:0.00658632 6:0.252188 7:1 
-16384 1:0.076 2:0.151815 3:0.0262383 4:0.0436235 5:0.0117477 6:0.479903 
-16384 1:0.016 2:0.15108 3:0.0228253 4:0.0416585 5:0.0193718 6:0.459481 7:1 
-16384 1:0.008 2:0.22699 3:0.0515243 4:0.0204362 5:0.0113579 6:0.226742 
-16384 1:0.004 2:0.161592 3:0.0261119 4:0.00962861 5:0.00713541 6:0.10705 7:1 
-16384 1:0.032 2:0.0834381 3:0.00710488 4:0.0343879 5:0.0139468 6:0.400405 7:1 
-16384 1:0.128 2:0.20666 3:4.58417e-05 4:0.0201742 5:0.0120497 6:0.239789 7:1 
-16384 1:0.004 2:0.0460915 3:0.00212443 4:0.0102181 5:0.00644081 6:0.119854 7:1 
-16384 1:0.004 2:0.0772041 3:0.00596048 4:0.00569857 5:0.00700088 6:0.0667747 7:1 
-16384 1:0.008 2:0.0824437 3:0.00679696 4:0.0100216 5:0.00573797 6:0.120016 
-16384 1:0.048 2:0.0670122 3:0.00449063 4:0.0271173 5:0.012931 6:0.325851 
-16384 1:0.004 2:0.240887 3:0.0580267 4:0.0102181 5:0.00730837 6:0.126499 7:1 
-16384 1:0.008 2:0.0621938 3:0.00457936 4:0.0090391 5:0.00667417 6:0.113533 
-16384 1:0.008 2:0.144444 3:0.020864 4:0.0501081 5:0.0119482 6:0.632901 
-16384 1:0.004 2:0.190796 3:0.0364031 4:0.0131657 5:0.00891445 6:0.166045 7:1 
-16384 4:0.0157202 5:0.00957336 6:0.202107 7:1 
-16384 1:0.04 2:0.268244 3:0.0719549 4:0.042641 5:0.0308945 6:0.552107 7:1 
-16384 1:0.024 2:0.102611 3:0.0105289 4:0.0113971 5:0.00902702 6:0.148298 7:1 
-16384 1:0.032 2:0.121509 3:0.0147644 4:0.0261348 5:0.0127251 6:0.347812 
-16384 1:0.008 2:0.0746408 3:0.000965223 4:0.0190607 5:0.0124423 6:0.256159 
-16384 1:0.008 2:0.167495 3:0.0300977 4:0.0561996 5:0.0176175 6:0.757212 
-16384 1:0.004 2:0.0775918 3:0.00602048 4:0.00943211 5:0.00650395 6:0.127066 
-16384 1:0.004 2:0.208 3:0.043264 4:0.0104146 5:0.00786295 6:0.141086 7:1 
-16384 4:0.0163097 5:0.0088266 6:0.222853 
-4572.064497951915 1:1 2:0.0660184 3:1.37127e-06 4:0.00412655 5:0.00623215 6:0.0576175 7:1 
-16384 4:0.0133622 5:0.00965023 6:0.187358 7:1 
-16384 1:0.056 2:0.264527 3:0.0574152 4:0.043427 5:0.0293241 6:0.613938 
-16384 1:0.212 2:0.118366 3:0.0141955 4:0.0155237 5:0.00994674 6:0.223339 7:1 
-16384 4:0.00943211 5:0.0111657 6:0.135656 7:1 
-16384 1:0.004 2:0.0775918 3:0.00602048 4:0.0159167 5:0.0103119 6:0.235332 
-16384 1:0.02 2:0.149194 3:0.0244234 4:0.0283618 5:0.012176 6:0.418314 7:1 
-16384 1:0.004 2:0.0460915 3:0.00212443 4:0.0088426 5:0.00835164 6:0.13128 7:1 
-16384 1:0.056 2:0.181407 3:0.0394804 4:0.0365494 5:0.0199045 6:0.54846 
-16384 1:0.004 2:0.0806196 3:0.00649952 4:0.00334054 5:0.00556227 6:0.0505673 7:1 
-16384 1:0.016 2:0.0856198 3:0.00733075 4:0.0113971 5:0.00902702 6:0.176661 7:1 
-16384 1:0.008 2:0.211209 3:0.0446092 4:0.0280998 5:0.0325472 6:0.436386 7:1 
-16384 4:0.0309819 5:0.0127004 6:0.482172 
-16384 1:0.004 2:0.162092 3:0.0262737 4:0.0312439 5:0.0157753 6:0.495219 7:1 
-16384 1:0.02 2:0.0714574 3:8.48556e-05 4:0.0407415 5:0.0159977 6:0.672853 
-16384 1:0.012 2:0.0610329 3:0.00360062 4:0.0159167 5:0.0103119 6:0.268395 
-16384 1:0.004 2:0.148 3:0.021904 4:0.00805659 5:0.00734131 6:0.138412 
-16384 4:0.0119866 5:0.00837635 6:0.205673 
-16384 1:1 2:0.104156 3:4.14516e-05 4:0.0104146 5:0.0073166 6:0.179254 7:1 
-16384 1:0.024 2:0.0948416 3:0.00899494 4:0.00746709 5:0.00670712 6:0.130713 7:1 
-16384 1:0.004 2:0.0492041 3:0.00242105 4:0.00687758 5:0.00467274 6:0.122204 7:1 
-16384 1:0.004 2:0.0915916 3:0.00894233 4:0.0419205 5:0.0150697 6:0.74684 
-16384 1:0.088 2:0.206477 3:0.0877398 4:0.0312439 5:0.020352 6:0.567504 7:1 
-16384 1:1 2:0.0932288 3:8.35402e-06 4:0.0165062 5:0.00756644 6:0.300567 
-16384 1:0.008 2:0.173398 3:0.0300668 4:0.00451955 5:0.00557599 6:0.0830632 7:1 
-16384 4:0.0161132 5:0.014765 6:0.295624 7:1 
-16384 1:0.02 2:0.0716969 3:3.02658e-05 4:0.0329469 5:0.0178289 6:0.601378 7:1 
-16384 4:0.0100216 5:0.00852734 6:0.186386 
-16384 1:0.192 2:0.0456986 3:1.36049e-05 4:0.0145412 5:0.00954865 6:0.271313 7:1 
-16384 1:0.008 2:0.0586021 3:0.0034342 4:0.0159167 5:0.00963925 6:0.299676 
-16384 4:0.0161132 5:0.0151933 6:0.307618 7:1 
-16384 1:0.008 2:0.0969141 3:0.00511523 4:0.0149342 5:0.0113826 6:0.289222 7:1 
-11948.07870204291 1:1 2:0.0721672 3:9.82492e-05 4:0.0112006 5:0.00618274 6:0.218152 
-16384 4:0.00923561 5:0.00918351 6:0.182091 7:1 
-16384 1:0.064 2:0.136762 3:0.018704 4:0.0383179 5:0.0227021 6:0.764506 
-16384 1:0.004 2:0.0787959 3:0.00620879 4:0.00275103 5:0.00488414 6:0.056483 7:1 
-16384 4:0.0147377 5:0.0141582 6:0.298055 7:1 
-16384 1:0.004 2:0.0467959 3:0.00218985 4:0.00943211 5:0.00650395 6:0.191815 
-16384 1:0.004 2:0.190796 3:0.0364031 4:0.0174887 5:0.0120086 6:0.355267 7:1 
-16384 1:0.024 2:0.0686879 3:0.00102504 4:0.0347809 5:0.0103723 6:0.708914 7:1 
-326.6382812434369 4:0.0153272 5:0.00597134 6:0.3141 7:1 
-16384 1:0.008 2:0.115122 3:0.0118448 4:0.00196502 5:0.00490336 6:0.0417342 7:1 
-16384 1:0.004 2:0.0695918 3:0.00484301 4:0.0131657 5:0.00891445 6:0.276418 7:1 
-16384 1:0.012 2:0.060993 3:0.00359113 4:0.0139517 5:0.0083434 6:0.302674 7:1 
-16384 4:0.0139517 5:0.00765429 6:0.30316 7:1 
-16384 1:0.012 2:0.0622676 3:0.00380041 4:0.00255453 5:0.00473589 6:0.0572934 7:1 
-16384 1:0.012 2:0.102132 3:0.00939878 4:0.0208292 5:0.0117972 6:0.456726 7:1 
-16384 1:0.004 2:0.356 3:0.126736 4:0.0234493 5:0.0140155 6:0.51872 
-16384 4:0.0194537 5:0.00472216 6:0.436791 7:1 
-16384 1:0.024 2:0.086527 3:0.00748692 4:0.0123796 5:0.00713266 6:0.280065 7:1 
-16384 1:0.096 2:0.0504412 3:8.74948e-05 4:0.00982511 5:0.00814024 6:0.225527 
-16384 1:0.004 2:0.138092 3:0.0190693 4:0.0108076 5:0.00789315 6:0.248379 
-16384 1:0.004 2:0.149592 3:0.0223777 4:0.000982511 5:0.00428564 6:0.0240681 7:1 
-16384 1:0.004 2:0.138092 3:0.0190693 4:0.0090391 5:0.00706951 6:0.208752 7:1 
-16384 1:0.02 2:0.0478475 3:2.7695e-05 4:0.00707408 5:0.00694872 6:0.164668 7:1 
-16384 1:0.008 2:0.193864 3:0.0375832 4:0.0100216 5:0.0077092 6:0.232982 7:1 
-16384 1:0.016 2:0.0527295 3:0.00262272 4:0.0167027 5:0.0066577 6:0.388655 7:1 
-16384 1:0.008 2:0.107398 3:0.0115343 4:0.0131657 5:0.00854931 6:0.320016 7:1 
-16384 4:0.0112006 5:0.00916703 6:0.274716 7:1 
-16384 1:1 2:0.144848 3:0.020981 4:0.0174887 5:0.00823633 6:0.436143 
-16384 1:0.004 2:0.0815918 3:0.00665722 4:0.00609157 5:0.00522183 6:0.152431 7:1 
-16384 1:0.008 2:0.182092 3:0.0331573 4:0.0127726 5:0.00877718 6:0.325284 7:1 
-16384 4:0.0108076 5:0.00841204 6:0.280227 
-16384 1:0.004 2:0.126796 3:0.0160772 4:0.0112006 5:0.0141802 6:0.294652 7:1 
-16384 4:0.0141482 5:0.0115611 6:0.373177 7:1 
-16384 4:0.0106111 5:0.00971063 6:0.281686 7:1 
-16384 4:0.0145412 5:0.0117642 6:0.388412 7:1 
-16384 1:0.004 2:0.0412041 3:0.00169778 4:0.00451955 5:0.00293488 6:0.122609 
-16384 1:0.012 2:0.0596223 3:0.00355481 4:0.00353704 5:0.00338788 6:0.0969206 7:1 
-16384 4:0.0117901 5:0.00789589 6:0.323825 7:1 
-14355.10634709219 4:0.0119866 5:0.00601252 6:0.330632 
-16384 4:0.0145412 5:0.00582583 6:0.408752 7:1 
-16384 4:0.0088426 5:0.00835438 6:0.253647 7:1 
-16384 1:0.004 2:0.0452041 3:0.00204341 4:0.0159167 5:0.0103119 6:0.459724 
-16384 4:0.0113971 5:0.0069597 6:0.331524 7:1 
-16384 4:0.00786009 5:0.00783549 6:0.230632 7:1 
-16384 4:0.0165062 5:0.010419 6:0.482253 7:1 
-16384 4:0.0146722 5:0.00780255 6:0.430875 
-16384 4:0.0133622 5:0.007226 6:0.39376 
-16384 4:0.00746709 5:0.00786569 6:0.22188 7:1 
-16384 4:0.0172922 5:0.0107539 6:0.512318 
-16384 4:0.0113971 5:0.00910663 6:0.3453 7:1 
-16384 1:0.004 2:0.0427959 3:0.00183149 4:0.000786009 5:0.00404404 6:0.0274716 7:1 
-16384 1:0.016 2:0.0563789 3:0.00287518 4:0.0208292 5:0.00960081 6:0.647488 7:1 
-16384 1:1 2:0.0734421 3:7.96492e-05 4:0.00255453 5:0.00507358 6:0.0850891 7:1 
-16384 4:0.0159167 5:0.00818691 6:0.516288 
-16384 1:0.004 2:0.0523876 3:0.00274446 4:0.000786009 5:0.00264112 6:0.0292545 7:1 
-16384 1:0.024 2:0.0713028 3:0.00508409 4:0.0121831 5:0.0084642 6:0.404538 7:1 
-16384 1:0.02 2:0.0896045 3:0.00802896 4:0.0149342 5:0.00563914 6:0.496353 
-16384 4:0.00707408 5:0.00853284 6:0.258671 7:1 
-16384 1:0.004 2:0.204887 3:0.0419788 4:0.00609157 5:0.00383538 6:0.225284 7:1 
-16384 1:0.004 2:0.0855918 3:0.00732595 4:0.0139517 5:0.00795904 6:0.518152 7:1 
-16384 1:0.044 2:0.0459618 3:0.00216996 4:0.00294753 5:0.00632001 6:0.113614 7:1 
-16384 1:0.004 2:0.12 3:0.0144 4:0.0088426 5:0.00864265 6:0.334036 7:1 
-16384 1:0.008 2:0.0809037 3:0.00715791 4:0.00668108 5:0.00530969 6:0.254214 7:1 
-16384 1:0.004 2:0.0667959 3:0.00446169 4:0.00314404 5:0.00546343 6:0.122366 7:1 
-16384 1:0.004 2:0.0888874 3:0.00790097 4:0.0178817 5:0.00612783 6:0.676985 
-16384 4:0.00805659 5:0.00800297 6:0.310373 7:1 
-16384 1:0.004 2:0.168 3:0.028224 4:0.00353704 5:0.0054799 6:0.141491 7:1 
-16384 1:0.004 2:0.0547959 3:0.00300259 4:0.00393005 5:0.00484296 6:0.157212 7:1 
-16384 1:0.02 2:0.0673979 3:0.00454248 4:0.0113971 5:0.00426093 6:0.452512 
-16384 1:0.004 2:0.0452041 4:0.00393005 5:0.00331924 6:0.161345 7:1 
-16384 4:0.00707408 5:0.00570778 6:0.287358 
-16384 1:0.004 2:0.0495918 3:0.00245934 4:0.00353704 5:0.00820064 6:0.146191 7:1 
-16384 1:0.004 2:0.0667959 3:0.00446169 4:0.0139517 5:0.00297606 6:0.561831 
-16384 1:0.004 2:0.138796 3:0.0192643 4:0.0086461 5:0.00665221 6:0.353485 
-16384 1:0.004 2:0.0455918 3:0.00207861 4:0.00530556 5:0.00516143 6:0.219611 7:1 
-16384 1:0.004 2:0.056183 3:0.00315653 4:0.0119866 5:0.00381617 6:0.489708 
-16384 4:0.00412655 5:0.00957885 6:0.171961 7:1 
-16384 4:0.0127726 5:0.00912585 6:0.524959 7:1 
-16384 4:0.0129691 5:0.00547167 6:0.532982 7:1 
-16384 4:0.00923561 5:0.00681968 6:0.381037 7:1 
-16384 4:0.00805659 5:0.00697342 6:0.334117 7:1 
-16384 1:0.016 2:0.123114 3:0.0151571 4:0.000196502 5:0.00318471 6:0.0133712 7:1 
-16384 4:0.00982511 5:0.0063255 6:0.411831 
-16384 1:0.988 2:0.0734742 3:0.00540137 4:0.0084496 5:0.01222 6:0.359806 7:1 
-16384 1:0.016 2:0.0551099 3:0.00284899 4:0.0167027 5:0.0066577 6:0.730794 7:1 
-16384 1:0.008 2:0.163708 3:0.0346302 4:0.0133622 5:0.00551834 6:0.591977 7:1 
-6410.560353584468 4:0.00962861 5:0.00605645 6:0.429741 7:1 
-16384 1:0.004 2:0.216 3:0.046656 4:0.00235803 5:0.00268779 6:0.110049 7:1 
-16384 1:0.012 2:0.0776366 3:0.00602744 4:0.00275103 5:0.00166374 6:0.127877 
-16384 1:0.064 2:0.0824595 3:0.0192991 4:0.0186022 5:0.00966121 6:0.845462 
-16384 4:0.00982511 5:0.00741544 6:0.444733 7:1 
-16384 4:0.00805659 5:0.00593839 6:0.375365 
-16384 1:0.004 2:0.0700915 3:0.00491282 4:0.00255453 5:0.00621568 6:0.123663 7:1 
-16384 4:0.00707408 5:0.00761586 6:0.344489 7:1 
-16384 1:0.008 2:0.0427959 3:0.00183149 4:0.00687758 5:0.00800846 6:0.335089 7:1 
-16384 1:0.132 2:0.0487198 3:1.75218e-05 4:0.00314404 5:0.00206457 6:0.157374 
-16384 1:0.008 2:0.126092 3:0.0158991 4:0.00275103 5:0.00168845 6:0.13906 
-16384 4:0.0118556 5:0.00932901 6:0.585981 
-16384 1:0.024 2:0.0559127 3:6.54034e-05 4:0.000786009 5:0.00337689 6:0.0448136 7:1 
-16384 4:0.00805659 5:0.00740995 6:0.397569 7:1 
-16384 1:0.008 2:0.0921938 3:0.0084997 4:0.00117901 5:0.00267681 6:0.0646677 7:1 
-16384 1:0.008 2:0.195398 3:0.0381804 4:0.00117901 5:0.00267681 6:0.0649919 7:1 
-16384 1:0.004 2:0.08 3:0.0064 4:0.00786009 5:0.00333297 6:0.40235 
-16384 1:0.004 2:0.168 3:0.028224 4:0.00648457 5:0.00576268 6:0.334522 7:1 
-16384 1:0.004 2:0.0460915 3:0.00212443 4:0.00137552 5:0.00406325 6:0.0769044 7:1 
-16384 1:0.004 2:0.0867959 3:0.00753352 4:0.00412655 5:0.00423347 6:0.220989 
-16384 4:0.00746709 5:0.00602076 6:0.395543 
-16384 1:0.004 2:0.164 3:0.026896 4:0.00373354 5:0.00525203 6:0.20316 7:1 
-16384 1:0.088 2:0.0861142 3:0.00769289 4:0.0090391 5:0.00737426 6:0.498298 
-16384 4:0.00491256 5:0.0099687 6:0.276823 
-16384 1:0.004 2:0.0907959 3:0.00824389 4:0.00157202 5:0.0050626 6:0.0944084 7:1 
-16384 4:0.0129691 5:0.00943609 6:0.730875 
-16384 1:0.004 2:0.0547959 3:0.00300259 4:0.00137552 5:0.00264935 6:0.0855754 7:1 
-16384 4:0.0102181 5:0.00741819 6:0.599271 7:1 
-16384 4:0.0117901 5:0.00651494 6:0.690113 7:1 
-16384 1:0.028 2:0.0656409 3:0.00430873 4:0.0135587 5:0.00635021 6:0.79611 
-16384 4:0.00707408 5:0.0067483 6:0.421475 7:1 
-16384 1:0.508 2:0.0837527 3:0.0133067 4:0.0131657 5:0.00785197 6:0.795948 
-16384 4:0.00825309 5:0.0120882 6:0.494976 7:1 
-16384 1:0.524 2:0.0501776 3:0.00251351 4:0.0136897 5:0.00924665 6:0.871394 
-16384 1:0.008 2:0.0564437 3:0.00318589 4:0.0110041 5:0.010666 6:0.686548 
-16384 1:0.008 2:0.118796 3:0.0141125 4:0.0132967 5:0.00481002 6:0.885656 
-16384 1:0.004 2:0.0443876 3:0.00197026 4:0.0084496 5:0.00495552 6:0.540194 
-16384 1:0.004 2:0.0587959 3:0.00345696 4:0.00157202 5:0.00285251 6:0.108266 7:1 
-16384 4:0.0115936 5:0.0087964 6:0.749028 7:1 
-16384 1:0.012 2:0.0573468 3:0.00328865 4:0.00386454 5:0.00330002 6:0.264425 
-16384 1:0.004 2:0.0452041 3:0.00204341 4:0.00235803 5:0.00217439 6:0.163533 7:1 
-16384 1:0.004 2:0.113592 3:0.0129031 4:0.00510906 5:0.0047304 6:0.346353 
-16384 1:0.004 2:0.0532041 3:0.00283068 4:0.000589507 5:0.00299253 6:0.0491896 7:1 
-16384 4:0.00353704 5:0.00820064 6:0.253809 7:1 
-16384 1:0.016 2:0.0842218 3:0.00709332 4:0.0088426 5:0.00543049 6:0.643598 7:1 
-16384 4:0.0088426 5:0.00733857 6:0.647326 7:1 
-16384 1:0.012 2:0.0747959 3:0.00559442 4:0.00353704 5:0.00282506 6:0.277147 7:1 
-16384 1:0.012 2:0.0465611 3:0.00216794 4:0.00373354 5:0.00388755 6:0.291815 7:1 
-16384 1:0.008 2:0.0415918 3:0.00172987 4:0.00609157 5:0.0028031 6:0.471556 
-16384 1:0.012 2:0.052993 3:0.00280825 4:0.000196502 5:0.00287997 6:0.0269854 7:1 
-16384 1:0.004 2:0.0812041 3:0.00659411 4:0.00314404 5:0.00396991 6:0.250729 7:1 
-16384 4:0.00412655 5:0.00504338 6:0.331442 
-16384 4:0.00451955 5:0.00897211 6:0.376013 7:1 
-16384 1:0.008 2:0.0720363 3:0.00518923 4:0.00235803 5:0.00459313 6:0.212156 7:1 
-16384 1:0.008 2:0.0742113 3:0.00550731 4:0.00235803 5:0.00459313 6:0.212156 7:1 
-16384 1:0.032 2:0.0514895 3:0.00265116 4:0.00982511 5:0.00777235 6:0.891977 
-16384 1:0.06 2:0.0446968 3:0.0019978 4:0.00949761 5:0.00691852 6:0.854214 
-16384 4:0.00805659 5:0.00959807 6:0.737034 7:1 
-16384 4:0.00936661 5:0.0231111 6:0.919935 
-16384 1:0.004 2:0.0926196 3:0.00857839 4:0.00609157 5:0.0039754 6:0.57342 
-12307.72625509607 4:0.00727058 5:0.00617999 6:0.686548 7:1 
-16384 1:0.004 2:0.0747959 3:0.00559442 4:0.00766359 5:0.00496101 6:0.733874 
-16384 1:0.004 2:0.088 3:0.007744 4:0.00176852 5:0.00316 6:0.182739 7:1 
-16384 1:0.008 2:0.0433979 3:0.00188338 4:0.00432305 5:0.00344828 6:0.434036 
-12234.92379380743 4:0.0087116 5:0.0100593 6:0.89684 
-16384 1:0.02 2:0.0427959 3:0.00183149 4:0.00609157 5:0.00632825 6:0.624554 7:1 
-16384 1:0.012 2:0.0590845 3:0.00349098 4:0.00157202 5:0.004368 6:0.175041 7:1 
-16384 1:0.004 2:0.0732041 3:0.00535884 4:0.00353704 5:0.00303371 6:0.37893 
-16384 1:0.12 2:0.0469255 3:4.85464e-06 4:0.00216152 5:0.0031902 6:0.23825 
-16384 1:0.06 2:0.0493934 3:2.13072e-07 4:0.00157202 5:0.0028937 6:0.177958 7:1 
-16384 1:0.004 2:0.0732041 3:0.00535884 4:0.00759809 5:0.00341808 6:0.827796 
-16384 1:0.06 2:0.0471067 3:1.97983e-06 4:0.00235803 5:0.0031957 6:0.260535 
-16384 1:0.1 2:0.0508865 3:4.05296e-06 4:0.00353704 5:0.00179277 6:0.382091 
-16384 1:0.176 2:0.0495565 3:1.53688e-05 4:0.00216152 5:0.00303097 6:0.240276 
-16384 1:0.064 2:0.0457744 3:1.21753e-05 4:0.00275103 5:0.00419229 6:0.30624 7:1 
-16384 1:0.056 2:0.0476761 3:8.007e-06 4:0.00412655 5:0.00304195 6:0.450405 
-16384 1:0.092 2:0.0521222 3:6.19929e-05 4:0.00491256 5:0.00291017 6:0.53282 
-16384 1:0.104 2:0.0491437 3:6.1418e-06 4:0.00471605 5:0.00389853 6:0.512237 
-16384 1:0.004 2:0.0427959 3:0.00183149 4:0.00569857 5:0.00491709 6:0.625932 7:1 
-16384 1:0.004 2:0.0412041 3:0.00169778 4:0.00353704 5:0.00119976 6:0.405916 7:1 
-16384 1:0.004 2:0.0427959 3:0.00183149 4:0.00628807 5:0.00660553 6:0.713452 
-16384 1:0.004 2:0.0580915 3:0.00337462 4:0.00451955 5:0.00130409 6:0.522771 
-16384 4:0.00471605 5:0.00765704 6:0.544733 7:1 
-16384 1:0.092 2:0.0483406 3:0.00233681 4:0.00713958 5:0.00337415 6:0.829417 
-16384 1:0.004 2:0.0667959 3:0.00446169 4:0.00176852 5:0.00320119 6:0.218152 7:1 
-16384 1:0.008 2:0.0414625 3:0.00172185 4:0.00759809 5:0.00507907 6:0.925446 
-16384 1:0.004 2:0.0587959 3:0.00345696 4:0.00524006 5:0.00444762 6:0.662318 
-16384 1:0.012 2:0.0583945 3:0.00340992 4:0.00681208 5:0.00145234 6:0.915073 
-16384 1:0.004 2:0.048 3:0.002304 4:0.00157202 5:0.00423073 6:0.220421 7:1 
-16384 1:0.052 2:0.04535 3:0.00205663 4:0.00589507 5:0.00451351 6:0.782253 
-16384 1:0.004 2:0.0427959 3:0.00183149 4:0.00451955 5:0.00527949 6:0.611345 7:1 
-16384 1:0.004 2:0.0486196 3:0.00236387 4:0.00491256 5:0.00446409 6:0.662561 
-16384 4:0.00491256 5:0.00734131 6:0.676823 7:1 
-16384 1:0.004 2:0.0547959 3:0.00300259 4:0.00582957 5:0.0030996 6:0.834522 
-16384 4:0.00471605 5:0.00715462 6:0.680065 7:1 
-16384 1:0.004 2:0.0507959 3:0.00258022 4:0.00373354 5:0.00478256 6:0.549676 7:1 
-7137.557475302134 1:0.004 2:0.0467959 3:0.00218985 4:0.00615707 5:0.00295135 6:0.908833 
-16384 1:0.004 2:0.0467959 3:0.00218985 4:0.00176852 5:0.00291017 6:0.27658 7:1 
