svm_type c_svc
kernel_type rbf
gamma 2
nr_class 2
total_sv 831
rho -5.67677
label 1 -1
probA -1.58717
probB 0.193635
nr_sv 453 378
SV
8881.318217679418 1:0.064 2:0.316716 3:0.100309 4:0.03989 5:0.0147266 6:0.531605 
32768 1:0.032 2:0.104106 3:0.0108381 4:0.0227943 5:0.0076488 6:0.400648 
32768 1:0.028 2:0.0619379 3:0.0038363 4:0.00648457 5:0.00645454 6:0.0443274 7:1 
32768 1:0.032 2:0.0692051 3:0.00478935 4:0.0153272 5:0.0062349 6:0.604943 7:1 
32768 1:0.008 2:0.0587959 3:0.00345696 4:0.0088426 5:0.0141802 6:0.234117 7:1 
32768 1:0.008 2:0.0528874 3:0.00279708 4:0.0141482 5:0.0136531 6:0.177147 7:1 
32768 1:0.032 2:0.147978 3:0.000254006 4:0.0271173 5:0.0171975 6:0.473825 
32768 1:0.008 2:0.184531 3:0.0390045 4:0.043296 5:0.0103119 6:0.378201 7:1 
32768 1:0.004 2:0.14462 3:0.0209148 4:0.0123796 5:0.00790687 6:0.0692058 
32768 4:0.00353704 5:0.004821 6:0.0688006 7:1 
32768 4:0.00982511 5:0.00608116 6:0.377472 7:1 
32768 1:0.028 2:0.0495563 3:0.00245583 4:0.00589507 5:0.00540303 6:0.19295 7:1 
14464.41139530805 1:0.228 2:0.0955803 3:0.0091356 4:0.0143447 5:0.00837909 6:0.264506 7:1 
32768 1:0.016 2:0.102425 3:0.010491 4:0.00727058 5:0.00694322 6:0.0902755 
32768 4:0.0235803 5:0.0121898 6:0.514182 7:1 
32768 1:0.024 2:0.0727199 3:0.00528818 4:0.00982511 5:0.00815396 6:0.312642 
4267.648902175735 1:0.128 2:0.330152 3:0.0832667 4:0.0703478 5:0.0838321 6:0.662885 
21687.13277623247 1:1 2:0.133473 3:0.0178151 4:0.16683 5:0.0692291 6:0.478525 7:1 
32768 4:0.0214187 5:0.0144136 6:0.425041 7:1 
4418.410725434678 1:0.008 2:0.274433 3:0.00508007 4:0.0475535 5:0.0254008 6:0.253809 
1803.793357985139 1:0.432 2:0.0580067 3:0.00336478 4:0.0349774 5:0.0377691 6:0.815073 
5741.944647949258 1:0.196 2:0.129643 3:0.0168073 4:0.0701513 5:0.0194899 6:0.733468 7:1 
32768 1:0.004 2:0.204 3:0.041616 4:0.00943211 5:0.00663848 6:0.0633712 7:1 
32768 4:0.0136897 5:0.00752526 6:0.295786 
32768 1:0.056 2:0.0708582 3:0.00502088 4:0.0220083 5:0.00854107 6:0.308266 
10068.80927019487 1:0.16 2:0.0933032 3:0.00870548 4:0.102771 5:0.0325143 6:0.672609 7:1 
31055.4308206988 1:0.024 2:0.0940485 3:0.00884511 4:0.0166372 5:0.00703108 6:0.869611 
32768 1:0.02 2:0.0713141 3:0.00508571 4:0.00255453 5:0.00535361 6:0.0650729 7:1 
32768 1:0.072 2:0.0869603 3:0.00019938 4:0.00943211 5:0.00812926 6:0.0243112 7:1 
32768 1:0.004 2:0.108388 3:0.0117479 4:0.00766359 5:0.00834615 6:0.0504052 7:1 
32768 1:0.008 2:0.0947535 3:0.00897823 4:0.0117901 5:0.00374204 6:0.523015 7:1 
32768 1:0.016 2:0.0615272 3:0.00378559 4:0.0147377 5:0.0072919 6:0.305105 
32768 1:0.056 2:0.0536271 3:8.1528e-05 4:0.00393005 5:0.00616901 6:0.0401135 7:1 
32768 4:0.0159167 5:0.0124259 6:0.380551 
12866.45000835974 1:0.068 2:0.0474721 3:0.0022536 4:0.0237113 5:0.0146552 6:0.820908 
11407.47366699963 1:0.004 2:0.10862 3:0.0117982 4:0.0106111 5:0.00780804 6:0.83282 
32768 1:0.008 2:0.0702653 3:0.00493721 4:0.00530556 5:0.00525752 6:0.442058 7:1 
13400.40266663027 1:0.004 2:0.254796 3:0.0649209 4:0.0224013 5:0.017343 6:0.336062 7:1 
32768 4:0.00510906 5:0.00661652 6:0.0568071 7:1 
32768 1:0.004 2:0.109592 3:0.0120104 4:0.0104146 5:0.00823358 6:0.0790113 7:1 
4919.610090704639 1:0.048 2:0.234217 3:0.0548577 4:0.046964 5:0.0423128 6:0.587682 7:1 
32768 1:0.268 2:0.0728093 3:2.15717e-05 4:0.00294753 5:0.00680046 6:0.0223663 7:1 
32768 1:0.124 2:0.0606332 3:0.000277854 4:0.0220083 5:0.010224 6:0.17966 7:1 
3588.930969191529 1:0.06 2:0.254687 3:0.0840966 4:0.0277068 5:0.0121925 6:0.445462 7:1 
32768 1:0.012 2:0.048932 3:0.00239104 4:0.00471605 5:0.0034922 6:0.36329 
32768 1:0.004 2:0.084 3:0.007056 4:0.00471605 5:0.00709422 6:0.0580227 7:1 
32768 1:0.008 2:0.0652396 3:0.0042562 4:0.0168992 5:0.00589447 6:0.69295 7:1 
14730.48678063163 1:0.04 2:0.0744937 3:0.00554931 4:0.0103491 5:0.00778058 6:0.357536 
203.6175209542629 1:0.388 2:0.0759932 3:3.30373e-05 4:0.00471605 5:0.00631726 6:0.0759319 
32768 1:0.004 2:0.0947959 3:0.00898626 4:0.0188642 5:0.00860422 6:0.562642 
32768 4:0.0184712 5:0.0119509 6:0.559076 7:1 
1313.219635627075 1:0.328 2:0.102332 3:0.0104719 4:0.161328 5:0.0713321 6:0.773825 7:1 
32768 4:0.0125761 5:0.00640786 6:0.276337 
32768 4:0.0121831 5:0.00732759 6:0.264019 
32768 4:0.00766359 5:0.00777235 6:0.168395 7:1 
32768 1:0.02 2:0.114132 3:0.00912221 4:0.0088426 5:0.0119427 6:0.0509724 7:1 
32768 1:0.016 2:0.0739749 3:0.00547229 4:0.0196502 5:0.00643532 6:0.446029 7:1 
32768 1:0.004 2:0.0867959 3:0.00753352 4:0.00412655 5:0.00762135 6:0.114668 7:1 
3738.899220768749 1:0.3 2:0.106896 3:0.00266181 4:0.14456 5:0.0382413 6:0.569044 
32768 1:0.028 2:0.07321 3:0.00535971 4:0.00962861 5:0.00803316 6:0.317909 7:1 
32768 1:0.004 2:0.193592 3:0.0374778 4:0.0190607 5:0.00647924 6:0.382091 7:1 
32768 1:0.02 2:0.0860014 3:0.00739623 4:0.0106111 5:0.00781902 6:0.843436 
23851.8935594082 1:0.012 2:0.137996 3:0.0190429 4:0.0216152 5:0.00747584 6:0.42966 
32768 1:0.004 2:0.0526196 3:0.00276882 4:0.00569857 5:0.00813475 6:0.0919773 7:1 
32768 4:0.00137552 5:0.00495003 6:0.01953 7:1 
32768 4:0.00530556 5:0.00697892 6:0.0687196 7:1 
32768 1:0.004 2:0.256388 3:0.0657346 4:0.0182747 5:0.0134801 6:0.0974878 
32768 4:0.0290823 5:0.013675 6:0.178363 
32768 4:0.00216152 5:0.0031051 6:0.267261 7:1 
1719.424318482482 1:0.208 2:0.175914 3:0.0266688 4:0.0491256 5:0.0158028 6:0.230308 7:1 
32768 4:0.00628807 5:0.00746486 6:0.207699 7:1 
32768 1:0.028 2:0.0679441 3:0.0017328 4:0.00805659 5:0.00794806 6:0.197002 7:1 
2790.847324750808 1:0.008 2:0.193864 3:0.0375832 4:0.0100216 5:0.0077092 6:0.232982 7:1 
32768 1:0.016 2:0.0514662 3:0.00252079 4:0.0133622 5:0.0122557 6:0.0996759 7:1 
6509.594667622923 1:0.004 2:0.122796 3:0.0150788 4:0.0131657 5:0.0129585 6:0.0987034 7:1 
32768 1:0.008 2:0.0586021 3:0.0034342 4:0.0159167 5:0.00963925 6:0.299676 
32768 1:0.004 2:0.140388 3:0.0197087 4:0.0159167 5:0.00838184 6:0.146191 
4957.038061699843 1:0.04 2:0.286619 3:0.162246 4:0.040676 5:0.0310235 6:0.312237 7:1 
32768 1:0.028 2:0.055488 3:0.00307891 4:0.00707408 5:0.00924116 6:0.125851 7:1 
21083.08889934037 1:0.04 2:0.232701 3:0.0863276 4:0.043427 5:0.0313914 6:0.588331 7:1 
32768 1:0.032 2:0.0897958 3:0.00806328 4:0.0159167 5:0.00692126 6:0.292464 7:1 
2998.706600498761 1:0.016 2:0.285797 3:0.0816801 4:0.0577717 5:0.0467384 6:0.582577 
32768 1:0.004 2:0.198092 3:0.0392402 4:0.00746709 5:0.00611136 6:0.16094 7:1 
32768 4:0.0176852 5:0.00964199 6:0.414587 
32768 1:0.004 2:0.0660915 3:0.00436809 4:0.00707408 5:0.00641335 6:0.114019 7:1 
32768 1:0.02 2:0.082932 3:0.00687771 4:0.0115936 5:0.00689381 6:0.3094 
32768 1:0.004 2:0.238092 3:0.0566876 4:0.00491256 5:0.00710521 6:0.13671 7:1 
32768 1:0.036 2:0.0886847 3:0.00786498 4:0.00334054 5:0.00452449 6:0.277715 7:1 
32768 1:0.024 2:0.0607124 3:0.003686 4:0.0119866 5:0.00599879 6:0.541329 7:1 
17748.50354343485 1:0.02 2:0.129966 3:0.00485352 4:0.0505666 5:0.0213184 6:0.0444895 
32768 1:0.004 2:0.0772041 3:0.00596048 4:0.00550206 5:0.00518889 6:0.4641 
32768 1:0.012 2:0.0730612 3:0.00533794 4:0.0121831 5:0.00563365 6:0.820421 
3861.704868370857 4:0.157595 5:0.0458846 6:0.143112 
32768 1:0.012 2:0.0517652 3:0.00267964 4:0.0084496 5:0.00876894 6:0.468395 7:1 
32768 4:0.0127726 5:0.0122447 6:0.498541 7:1 
32768 1:0.032 2:0.0676198 3:0.00457244 4:0.0141482 5:0.00561718 6:0.316937 
32768 4:0.0190607 5:0.0128514 6:0.732496 7:1 
20903.83513152278 1:0.004 2:0.040183 3:0.00161468 4:0.0147377 5:0.013848 6:0.671475 7:1 
32768 4:0.0131657 5:0.0107841 6:0.663776 7:1 
309.1701109181806 1:0.004 2:0.696 3:0.484416 4:0.0569857 5:0.0253926 6:0.329335 7:1 
32768 4:0.00982511 5:0.00830496 6:0.129903 7:1 
32768 4:0.00917011 5:0.00778058 6:0.346515 
32768 1:0.02 2:0.0662733 3:0.00439215 4:0.0137552 5:0.0091588 6:0.563128 7:1 
32768 1:0.008 2:0.0935686 3:0.00875509 4:0.0135587 5:0.0106358 6:0.108185 7:1 
32768 4:0.0188642 5:0.0136476 6:0.334522 
32768 4:0.0123796 5:0.0132111 6:0.43671 7:1 
20315.53967845588 1:0.004 2:0.200887 3:0.0403557 4:0.0157202 5:0.0077394 6:0.373663 7:1 
32768 1:0.004 2:0.0815918 3:0.00665722 4:0.00609157 5:0.00583132 6:0.290762 7:1 
32768 1:0.028 2:0.0680236 3:0.00462722 4:0.00569857 5:0.00793433 6:0.352917 7:1 
10692.37045625676 1:0.016 2:0.0983768 3:0.00967799 4:0.00510906 5:0.00721502 6:0.227472 7:1 
32768 1:0.004 2:0.052183 3:0.00272307 4:0.0115936 5:0.00994948 6:0.30235 7:1 
32768 1:0.004 2:0.100183 3:0.0100366 4:0.00176852 5:0.00298979 6:0.0871961 7:1 
32768 1:0.004 2:0.0907959 3:0.00824389 4:0.00157202 5:0.00407149 6:0.041248 7:1 
32768 1:0.008 2:0.0908136 3:0.00824711 4:0.00347154 5:0.00350044 6:0.145867 
32768 4:0.0133622 5:0.0191934 6:0.262156 7:1 
32768 1:0.008 2:0.0625352 3:0.00391065 4:0.0196502 5:0.00643806 6:0.511912 7:1 
32768 1:0.024 2:0.0883545 3:0.00780652 4:0.0137552 5:0.00844224 6:0.855186 
14581.77273750127 1:0.004 2:0.4 3:0.16 4:0.00727058 5:0.00630079 6:0.102836 7:1 
32768 1:0.004 2:0.044 3:0.001936 4:0.0186677 5:0.00865913 6:0.450324 
32768 1:0.044 2:0.150908 3:0.0227733 4:0.0540381 5:0.0158604 6:0.528039 
32768 1:0.02 2:0.127044 3:0.0022003 4:0.0131657 5:0.0107155 6:0.171151 7:1 
1896.610513032146 1:0.068 2:0.373415 3:0.139439 4:0.0599332 5:0.0452751 6:0.215397 
32768 1:0.008 2:0.24366 3:0.0582607 4:0.0595402 5:0.0169586 6:0.598541 
4636.305679785222 1:0.548 2:0.154761 3:0.0247101 4:0.0989716 5:0.0521058 6:0.729984 
14267.3024855667 1:0.02 2:0.338185 3:0.114369 4:0.042248 5:0.0318032 6:0.153241 
32768 1:0.008 2:0.165699 3:0.0253614 4:0.00943211 5:0.00532341 6:0.122853 
14912.53883302013 1:1 2:0.0758633 3:9.91702e-06 4:0.0222703 5:0.0119921 6:0.141653 7:1 
32768 1:0.008 2:0.0636478 3:0.00417561 4:0.0084496 5:0.00384637 6:0.40859 
32768 1:0.012 2:0.1038 3:0.010243 4:0.00157202 5:0.00388206 6:0.0657212 7:1 
32768 4:0.00373354 5:0.00531518 6:0.028201 7:1 
2150.366720501565 1:0.092 2:0.205915 3:0.0424011 4:0.0803694 5:0.0392049 6:0.631605 7:1 
32768 1:0.012 2:0.122641 3:0.00995577 4:0.0246283 5:0.0117725 6:0.240276 
32768 1:0.004 2:0.125204 3:0.0156761 4:0.00491256 5:0.00541676 6:0.117828 7:1 
32768 4:0.00805659 5:0.0106139 6:0.233549 7:1 
32768 1:0.004 2:0.0747959 3:0.00559442 4:0.0141482 5:0.00947178 6:0.162237 
32768 1:0.012 2:0.0681902 3:0.00464991 4:0.0133622 5:0.00940314 6:0.339465 7:1 
32.57091843102015 1:0.008 2:0.789398 3:0.623149 4:0.0813519 5:0.0310839 6:0.785981 7:1 
32768 4:0.0218118 5:0.00863442 6:0.481686 7:1 
32768 1:0.064 2:0.065675 3:0.0043132 4:0.0151307 5:0.00563914 6:0.7047 7:1 
32768 4:0.0141482 5:0.0154761 6:0.565154 
32768 1:0.016 2:0.0860458 3:0.00740387 4:0.00176852 5:0.00284153 6:0.184198 7:1 
9462.579639699414 1:0.008 2:0.275648 3:0.109973 4:0.0147377 5:0.00725071 6:0.0839546 7:1 
32768 1:0.028 2:0.0864107 3:0.00746681 4:0.00727058 5:0.00408247 6:0.220746 
1456.318787831221 1:0.048 2:0.200648 3:0.00310956 4:0.127006 5:0.043658 6:0.348136 7:1 
32768 1:0.048 2:0.0765975 3:0.00586717 4:0.00569857 5:0.00428838 6:0.549676 
32768 1:0.028 2:0.0645071 3:0.00416116 4:0.00687758 5:0.00400835 6:0.691734 
32768 1:0.004 2:0.110092 3:0.0121201 4:0.00117901 5:0.00382715 6:0.135494 7:1 
32768 4:0.0145412 5:0.0152015 6:0.516613 7:1 
32768 1:0.012 2:0.0952508 3:0.0024398 4:0.0088426 5:0.00713266 6:0.065316 7:1 
31.5767261768567 1:0.024 2:0.888963 3:0.790255 4:0.105915 5:0.0645536 6:0.806078 7:1 
32768 1:0.004 2:0.0563876 3:0.00317957 4:0.0110041 5:0.00839831 6:0.867585 
32768 1:0.008 2:0.076 3:0.005776 4:0.00275103 5:0.00401933 6:0.211669 7:1 
32768 1:0.02 2:0.126701 3:0.0160532 4:0.0204362 5:0.00970788 6:0.593598 
32768 4:0.0151307 5:0.0110449 6:0.446515 7:1 
82.29691437563498 1:0.252 2:0.0960396 3:0.00701128 4:0.146001 5:0.0666044 6:0.806483 7:1 
32768 1:0.004 2:0.100887 3:0.0101783 4:0.0086461 5:0.00421425 6:0.297731 
20.78884677557307 1:0.004 2:1 3:1 4:0.0556101 5:0.0238689 6:0.8047 7:1 
32768 1:0.008 2:0.302194 3:0.0913211 4:0.0318334 5:0.0169421 6:0.458995 
7699.923027339419 4:0.0125761 5:0.0111657 6:0.795219 7:1 
19323.47250788998 4:0.0194537 5:0.0052081 6:0.799514 7:1 
32768 1:0.004 2:0.0852041 3:0.00725974 4:0.0111351 5:0.00712991 6:0.465883 
32768 1:0.004 2:0.0747959 3:0.00559442 4:0.00569857 5:0.00603723 6:0.235494 7:1 
279.5457173657806 1:0.02 2:0.214189 3:0.0458767 4:0.0339949 5:0.0166731 6:0.604943 
32768 1:0.02 2:0.0947676 3:0.0089809 4:0.0117901 5:0.00460685 6:0.463533 
1893.214141272434 1:0.176 2:0.0684325 3:0.00468301 4:0.0536451 5:0.0109351 6:0.804619 7:1 
32768 1:0.004 2:0.302092 3:0.0912593 4:0.00628807 5:0.00317373 6:0.227715 7:1 
32768 1:0.004 2:0.19662 3:0.0386593 4:0.00530556 5:0.00501867 6:0.219611 7:1 
32768 1:0.004 2:0.0695918 3:0.00484301 4:0.0182747 5:0.0135927 6:0.111183 7:1 
32768 1:0.004 2:0.109592 3:0.0120104 4:0.0088426 5:0.00603448 6:0.157861 
32768 1:0.004 2:0.0540915 3:0.00292589 4:0.0174887 5:0.0186718 6:0.110859 7:1 
32768 1:0.008 2:0.17769 3:0.0315738 4:0.0176852 5:0.00711344 6:0.259319 7:1 
24865.5630103343 1:0.012 2:0.10636 3:0.00360877 4:0.0244318 5:0.0166237 6:0.680227 
4294.092502237429 1:0.672 2:0.133925 3:0.017936 4:0.0656318 5:0.0371623 6:0.686224 
683.3927577661492 1:0.388 2:0.151651 3:0.00829197 4:0.0416585 5:0.025162 6:0.37188 7:1 
32768 1:0.008 2:0.0533979 3:0.00285134 4:0.0275103 5:0.0115446 6:0.22269 7:1 
8813.834884642043 1:0.004 2:0.242092 3:0.0586083 4:0.00393005 5:0.00687184 6:0.0388169 7:1 
32768 1:0.016 2:0.0522676 3:0.0027319 4:0.0100216 5:0.00861245 6:0.294652 7:1 
32768 1:0.008 2:0.249446 3:0.0583042 4:0.0487981 5:0.0115391 6:0.405105 
32768 1:0.016 2:0.0672976 3:0.00952935 4:0.0117901 5:0.00759115 6:0.351135 7:1 
28925.6878272571 1:0.02 2:0.202198 3:0.0408842 4:0.0618327 5:0.0155969 6:0.5094 7:1 
1048.570528896688 1:0.24 2:0.212304 3:0.186197 4:0.0510906 5:0.0319652 6:0.642626 7:1 
32768 1:0.008 2:0.056 3:0.003136 4:0.0159167 5:0.0119482 6:0.15389 7:1 
32768 1:0.004 2:0.252388 3:0.0636995 4:0.0229908 5:0.0129777 6:0.286062 7:1 
32768 4:0.0100216 5:0.00754722 6:0.104781 7:1 
23963.76478341163 1:0.044 2:0.0873412 3:0.00762849 4:0.0149342 5:0.00770646 6:0.703566 7:1 
32768 4:0.0088426 5:0.0074978 6:0.244003 
32768 4:0.0271173 5:0.0064161 6:0.573825 7:1 
397.8326837101973 1:1 2:0.203067 3:0.000426998 4:0.0324884 5:0.0177822 6:0.602188 
32768 4:0.0137552 5:0.00574621 6:0.143841 
32768 1:0.004 2:0.044 3:0.001936 4:0.0135587 5:0.00633099 6:0.512885 
4495.191044244932 1:0.008 2:0.568 3:0.322624 4:0.00275103 5:0.00496101 6:0.0324149 7:1 
32768 1:0.004 2:0.108 3:0.011664 4:0.000196502 5:0.00334395 6:0.00696921 7:1 
12249.88452304299 1:0.02 2:0.110301 3:0.0180746 4:0.0186677 5:0.022919 6:0.0495138 7:1 
19537.63133634155 1:0.004 2:0.242337 3:0.0587271 4:0.0393005 5:0.0341341 6:0.283793 7:1 
32768 1:0.008 2:0.155842 3:0.000812236 4:0.0200432 5:0.0106304 6:0.343031 
32768 1:1 2:0.0781479 3:8.20307e-05 4:0.0318334 5:0.0154459 6:0.0897083 
32768 4:0.0113971 5:0.0134033 6:0.360292 7:1 
32768 1:0.004 2:0.052 3:0.002704 4:0.0178817 5:0.0087964 6:0.262156 7:1 
32768 1:0.036 2:0.0667731 3:0.00445865 4:0.0225978 5:0.00859873 6:0.68671 
9413.279593740661 4:0.0308509 5:0.0336729 6:0.0810373 
22246.19015284317 1:0.028 2:0.151696 3:0.0230116 4:0.0763084 5:0.0299363 6:0.635981 
32768 1:0.008 2:0.0664437 3:0.00441476 4:0.00962861 5:0.00617725 6:0.229173 
448.0111623296748 1:1 2:0.174426 3:0.0228946 4:0.10336 5:0.0739293 6:0.499028 7:1 
32768 1:0.016 2:0.0852396 3:0.00726579 4:0.00805659 5:0.00924116 6:0.604943 7:1 
32768 1:0.004 2:0.118796 3:0.0141125 4:0.00805659 5:0.00566659 6:0.130632 7:1 
32768 4:0.0084496 5:0.00761311 6:0.142464 7:1 
32768 4:0.0174887 5:0.0149599 6:0.0883306 7:1 
32768 1:0.004 2:0.106796 3:0.0114054 4:0.0167027 5:0.00975456 6:0.205429 
5835.839952354986 1:0.036 2:0.201117 3:0.111161 4:0.0267243 5:0.0194624 6:0.0461102 
1303.054927905127 1:0.004 2:0.349204 3:0.121944 4:0.0298683 5:0.0120964 6:0.331686 
9343.03938163392 1:0.14 2:0.125525 3:0.0157565 4:0.0715268 5:0.012629 6:0.602431 
32768 1:0.22 2:0.0614461 3:0.00377562 4:0.00334054 5:0.00214419 6:0.314263 
15019.58213871171 1:0.112 2:0.0844105 3:0.00712513 4:0.00707408 5:0.00391226 6:0.59684 
32768 1:0.004 2:0.222796 3:0.049638 4:0.0269208 5:0.018669 6:0.294084 7:1 
25894.00829330865 1:1 2:0.117956 3:0.000589825 4:0.0184712 5:0.00598781 6:0.3906 7:1 
31941.87475754017 4:0.0233838 5:0.0201817 6:0.324959 7:1 
32768 4:0.0170957 5:0.00747859 6:0.567666 7:1 
32768 4:0.0131657 5:0.00609488 6:0.857374 
32768 4:0.0172922 5:0.00967769 6:0.845219 
32768 4:0.0280998 5:0.00664397 6:0.830551 
32768 1:0.068 2:0.0829516 3:0.00113222 4:0.0195847 5:0.00909291 6:0.565559 
32768 1:0.004 2:0.0568874 3:0.00323618 4:0.0106111 5:0.0101224 6:0.255754 
32768 1:0.008 2:0.212495 3:0.0251561 4:0.0125761 5:0.00465078 6:0.165073 
32768 1:0.004 2:0.124 3:0.015376 4:0.00628807 5:0.00684439 6:0.0329011 7:1 
32768 1:0.004 2:0.0467959 3:0.00218985 4:0.00628807 5:0.00812376 6:0.189546 7:1 
18267.81300966204 1:0.3 2:0.140694 3:0.00403278 4:0.0508941 5:0.0273117 6:0.0309562 7:1 
32768 1:0.024 2:0.0666972 3:0.00444851 4:0.0110696 5:0.00698715 6:0.877147 
32768 1:0.012 2:0.0535012 3:0.000337235 4:0.0304579 5:0.0151768 6:0.0303079 7:1 
1442.046593329687 1:0.652 2:0.10616 3:0.00980435 4:0.0334054 5:0.0192346 6:0.165883 7:1 
183.0753583248801 1:0.692 2:0.362397 3:0.131332 4:0.0943211 5:0.0589749 6:0.762966 
32768 1:0.016 2:0.0641938 3:0.00694327 4:0.00399555 5:0.0051175 6:0.421637 
32768 1:0.004 2:0.0523876 3:0.00274446 4:0.00569857 5:0.00556776 6:0.211669 7:1 
6708.528740596871 1:0.06 2:0.0822225 3:0.000788002 4:0.0186677 5:0.0065369 6:0.394733 7:1 
32768 4:0.00648457 5:0.00689655 6:0.310292 7:1 
32768 4:0.0123796 5:0.0100922 6:0.223015 7:1 
32768 4:0.0104146 5:0.00867285 6:0.23282 
1047.442295899439 1:1 2:0.268846 3:0.0791604 4:0.208096 5:0.0802163 6:0.58047 7:1 
32768 4:0.0184712 5:0.0139194 6:0.279498 
32768 1:0.004 2:0.0566196 3:0.00320578 4:0.00687758 5:0.0104903 6:0.229335 7:1 
32768 1:0.012 2:0.105138 3:0.0110541 5:0.00319844 6:0.00575365 7:1 
32768 1:0.04 2:0.0483444 3:0.00233718 4:0.0115936 5:0.00907369 6:0.372123 7:1 
32768 1:0.008 2:0.0672396 3:0.00452116 4:0.00786009 5:0.00681144 6:0.807536 
3014.654717484937 1:0.036 2:0.177738 3:0.00531955 4:0.125892 5:0.0337772 6:0.763695 
32768 1:0.004 2:0.0507959 3:0.00258022 4:0.0104146 5:0.00769548 6:0.15235 7:1 
731.5053131492274 1:0.02 2:0.265728 3:0.261939 4:0.0573787 5:0.046862 6:0.36564 7:1 
32768 1:0.004 2:0.064 3:0.004096 4:0.0119866 5:0.0102268 6:0.275284 7:1 
32768 1:0.008 2:0.0913979 3:0.00835358 4:0.00982511 5:0.00773117 6:0.249676 7:1 
32768 1:0.04 2:0.0772638 3:0.00595452 4:0.0267243 5:0.00741269 6:0.768395 
32768 1:0.008 2:0.0622875 3:0.00385122 4:0.0231218 5:0.0151686 6:0.110697 7:1 
133.6087931801787 1:1 2:0.14477 3:0.0430909 4:0.291347 5:0.0888892 6:0.696677 7:1 
32768 4:0.0135587 5:0.00419778 6:0.383063 
32768 1:0.004 2:0.111156 3:0.0123556 4:0.0153272 5:0.00610861 6:0.211994 
32768 4:0.00648457 5:0.011012 6:0.337358 
32768 4:0.00943211 5:0.0108802 6:0.380227 
32768 1:0.004 2:0.0406196 3:0.00164995 4:0.0224013 5:0.0080414 6:0.296515 
636.8516929657831 1:1 2:0.253481 3:0.0509228 4:0.0766359 5:0.0396552 6:0.567018 
26014.28690436208 1:0.244 2:0.0886255 3:0.00656357 4:0.0143447 5:0.00986438 6:0.164344 7:1 
32768 4:0.0125761 5:0.00764606 6:0.626418 
32768 1:0.004 2:0.0740915 3:0.00548955 4:0.0129691 5:0.00699813 6:0.681524 7:1 
127.9694356119478 1:0.004 2:0.47262 3:0.223369 4:0.0169647 5:0.00537832 6:0.367909 
32768 1:0.004 2:0.118092 3:0.0139456 4:0.0121831 5:0.00316 6:0.311669 7:1 
32768 4:0.0198467 5:0.00875247 6:0.134684 
9014.434795695115 1:0.012 2:0.315518 3:0.0995518 4:0.0318334 5:0.0149627 6:0.541491 
32768 1:0.004 2:0.08 3:0.0064 4:0.00786009 5:0.00472216 6:0.82731 
32768 1:0.012 2:0.0532278 3:0.00283319 4:0.0117901 5:0.00655337 6:0.270746 
14131.63379577923 1:0.004 2:0.284 3:0.080656 4:0.0356324 5:0.0255409 6:0.691248 
32454.85168200805 1:0.524 2:0.0537516 3:0.00288923 4:0.00995611 5:0.00298155 6:0.896353 
2126.348595589249 1:0.724 2:0.12715 3:0.0161616 4:0.0398245 5:0.0194734 6:0.25859 7:1 
32768 1:0.004 2:0.0692041 3:0.00478921 4:0.00766359 5:0.0074676 6:0.0694489 7:1 
32768 1:0.06 2:0.0777852 3:0.00605054 4:0.00707408 5:0.0051175 6:0.250567 7:1 
32768 1:0.02 2:0.0567197 3:0.00321712 4:0.0135587 5:0.0136888 6:0.0642626 7:1 
4327.537995307111 1:1 2:0.152902 3:0.0235618 4:0.083317 5:0.0497666 6:0.471556 7:1 
32768 1:0.012 2:0.0552568 3:0.00273728 4:0.00353704 5:0.00642708 6:0.0534036 7:1 
32768 1:0.128 2:0.06174 3:0.000518984 4:0.0141482 5:0.011907 6:0.297974 
6821.277225211214 1:1 2:0.0760109 3:0.00609621 4:0.0121831 5:0.00426093 6:0.441086 
32768 4:0.0341914 5:0.0238908 6:0.164344 
32768 1:0.012 2:0.161007 3:0.0259234 4:0.0956966 5:0.0278553 6:0.543598 
7034.810774269909 1:0.128 2:0.0799457 3:0.0676217 4:0.0233838 5:0.0082226 6:0.794246 
9978.189953835978 1:0.016 2:0.164115 3:0.0269336 4:0.0165062 5:0.00679222 6:0.722204 
32768 1:0.004 2:0.132 3:0.017424 4:0.0117901 5:0.00764331 6:0.0910049 7:1 
32768 1:0.008 2:0.0628569 3:0.00395099 4:0.00727058 5:0.00804415 6:0.478363 7:1 
32768 1:0.028 2:0.0716821 3:0.00513833 4:0.0113971 5:0.00717933 6:0.524473 7:1 
32768 1:0.008 2:0.0725306 3:0.00526069 4:0.0129691 5:0.00505711 6:0.25859 
32768 1:0.068 2:0.05728 3:0.003281 4:0.0171612 5:0.00774764 6:0.842382 
32768 1:0.008 2:0.0637769 3:0.00406749 4:0.00294753 5:0.00568307 6:0.102593 7:1 
10634.69460698468 1:0.008 2:0.193842 3:0.0375746 4:0.0349774 5:0.00876345 6:0.512804 7:1 
32768 1:0.016 2:0.0597959 3:0.00357555 4:0.0091046 5:0.00643806 6:0.892869 
32768 1:0.004 2:0.133204 3:0.0177433 4:0.000786009 5:0.00379969 6:0.0491086 7:1 
15581.7602428782 1:1 2:0.0876775 3:0.00768734 4:0.0234493 5:0.01057 6:0.252269 
32768 1:0.004 2:0.117592 3:0.0138278 4:0.00615707 5:0.00534538 6:0.175608 7:1 
32768 1:0.004 2:0.0806196 3:0.00649952 4:0.00609157 5:0.00676752 6:0.230065 7:1 
5256.885945543862 1:0.032 2:0.553208 3:0.296808 4:0.0277068 5:0.0163079 6:0.204619 7:1 
32768 4:0.0112006 5:0.0162475 6:0.131361 7:1 
31484.69172418288 1:0.012 2:0.141735 3:0.0200887 4:0.0229908 5:0.00526576 6:0.63047 7:1 
32768 1:0.004 2:0.0883876 3:0.00781237 4:0.0135587 5:0.00673457 6:0.190357 7:1 
32768 1:0.004 2:0.122092 3:0.0149063 4:0.0106111 5:0.00410444 6:0.3547 7:1 
7052.962734219594 1:1 2:0.10636 3:0.0113125 4:0.0365494 5:0.0333297 6:0.341815 7:1 
32768 1:0.064 2:0.0485752 3:0.00235955 4:0.00445405 5:0.00437074 6:0.4359 
32768 4:0.0172922 5:0.00637492 6:0.523096 
32768 1:0.008 2:0.0826196 3:0.006826 4:0.000786009 5:0.00384637 6:0.0531605 7:1 
17209.51630504257 1:0.02 2:0.0691409 3:0.00478046 4:0.0143447 5:0.0133978 6:0.628039 
32768 4:0.0186677 5:0.00765978 6:0.689708 7:1 
12710.57643604284 1:0.02 2:0.166939 3:0.0278686 4:0.0471605 5:0.0105672 6:0.507536 7:1 
32768 1:0.192 2:0.105198 3:0.0110666 4:0.0448025 5:0.0117862 6:0.28047 7:1 
18128.81892352259 1:0.076 2:0.238545 3:0.00253183 4:0.0514836 5:0.0318307 6:0.396759 7:1 
32768 1:0.004 2:0.12 3:0.0144 4:0.0137552 5:0.0118164 6:0.00705024 7:1 
32768 1:0.016 2:0.146346 3:0.00252847 4:0.0225978 5:0.0150917 6:0.0128039 7:1 
32768 1:0.02 2:0.131145 3:0.00060117 4:0.0104146 5:0.0097271 6:0.110535 7:1 
32768 1:0.116 2:0.0480798 3:0.00253897 4:0.0161132 5:0.0121596 6:0.056483 7:1 
32768 1:0.004 2:0.084 3:0.007056 4:0.00314404 5:0.00653141 6:0.0705835 7:1 
32768 4:0.0170957 5:0.00742917 6:0.0641005 7:1 
8551.527589700127 1:1 2:0.121535 3:0.00149375 4:0.00530556 5:0.00387656 6:0.0328201 
32768 1:0.004 2:0.120388 3:0.0144932 4:0.0102181 5:0.00477158 6:0.379498 7:1 
32768 1:0.004 2:0.124194 3:0.0154241 4:0.0112006 5:0.00783275 6:0.0512156 7:1 
32768 1:0.08 2:0.0743652 3:0.00553018 4:0.0087771 5:0.00358555 6:0.763128 
32768 4:0.0237113 5:0.00995772 6:0.0614263 
32768 1:0.004 2:0.221592 3:0.0491029 4:0.0129691 5:0.00616901 6:0.147569 7:1 
7447.632344095318 1:0.308 2:0.0653905 3:0.00427591 4:0.0241698 5:0.0104052 6:0.174473 7:1 
3087.17865993229 1:0.056 2:0.203771 3:0.0142531 4:0.0371389 5:0.0243329 6:0.408509 
3943.275469123171 1:0.036 2:0.233897 3:0.0547078 4:0.0550206 5:0.0463486 6:0.5406 7:1 
17425.18024843735 1:0.036 2:0.257272 3:0.0661891 4:0.0381214 5:0.04849 6:0.46013 7:1 
32768 1:0.004 2:0.14 3:0.0196 4:0.0261348 5:0.00917252 6:0.0350081 
32768 1:0.06 2:0.0537944 3:0.00289384 4:0.00943211 5:0.00859324 6:0.0602917 7:1 
32768 1:0.024 2:0.117694 4:0.0235803 5:0.0168653 6:0.0706645 7:1 
32768 1:0.004 2:0.118092 3:0.0139456 4:0.000786009 5:0.00266857 6:0.0731767 7:1 
32768 4:0.00766359 5:0.00557874 6:0.264344 
32768 4:0.0117901 5:0.010861 6:0.129417 7:1 
544.032610657753 1:0.036 2:0.369545 3:0.355343 4:0.044606 5:0.0256095 6:0.5406 7:1 
32768 1:0.008 2:0.0848874 3:0.00720587 4:0.00825309 5:0.00792884 6:0.28201 7:1 
32768 1:0.008 2:0.0886196 3:0.00785343 4:0.00962861 5:0.00666593 6:0.375851 
32768 1:0.004 2:0.0815918 3:0.00665722 4:0.0157202 5:0.00761586 6:0.309724 
32768 1:0.004 2:0.0495918 3:0.00245934 4:0.000982511 5:0.00295959 6:0.0883306 7:1 
2023.442420330168 1:1 2:0.234964 3:0.00262888 4:0.0501081 5:0.0411844 6:0.0580227 7:1 
32768 1:0.008 2:0.104444 3:0.0109085 4:0.00373354 5:0.00355535 6:0.0465964 7:1 
32768 1:0.008 2:0.0521938 3:0.00272419 4:0.0196502 5:0.0081622 6:0.562966 
32768 4:0.0261348 5:0.0114101 6:0.634684 
32768 1:0.012 2:0.0850969 3:0.00929849 4:0.0178817 5:0.0121458 6:0.104457 
4954.238530411236 1:0.116 2:0.0791932 3:1.67059e-05 4:0.043427 5:0.0253349 6:0.111588 7:1 
32768 1:0.016 2:0.163877 3:0.00339261 4:0.0163097 5:0.00821436 6:0.156726 7:1 
32768 4:0.0184712 5:0.00933725 6:0.483387 
32768 4:0.0123796 5:0.0104519 6:0.435413 7:1 
32768 1:0.036 2:0.0696084 3:0.000174908 4:0.040676 5:0.0229546 6:0.0720421 
32768 1:0.104 2:0.0623781 3:0.00389103 4:0.00746709 5:0.00681144 6:0.063128 7:1 
32768 1:0.064 2:0.0770004 3:0.000177197 4:0.0208292 5:0.00638315 6:0.0780389 
8718.996723279157 1:1 2:0.118673 3:0.00180795 4:0.0788629 5:0.0239485 6:0.133225 
4011.611019677221 1:0.508 2:0.220307 3:0.00816566 4:0.0396935 5:0.0226609 6:0.420421 7:1 
20432.87622892277 1:1 2:0.0821189 3:0.00648481 4:0.0744744 5:0.033736 6:0.465883 7:1 
32768 4:0.00687758 5:0.00369537 6:0.26564 7:1 
32768 1:0.012 2:0.100932 3:0.00442359 4:0.0135587 5:0.0113497 6:0.0253647 
32768 1:0.004 2:0.0606196 3:0.00367474 4:0.0104146 5:0.0069295 6:0.382172 7:1 
20074.2599486039 1:0.028 2:0.240336 3:0.0528841 4:0.0389074 5:0.0371403 6:0.574473 7:1 
31534.60270636874 4:0.0108731 5:0.0189573 6:0.86329 
2379.814313892632 1:0.004 2:0.253592 3:0.0643088 4:0.0304579 5:0.014625 6:0.138088 
786.2440070168574 1:0.116 2:0.150095 3:0.0225284 4:0.0573787 5:0.0151521 6:0.523663 7:1 
32768 4:0.0131657 5:0.011292 6:0.357293 7:1 
32768 4:0.00668108 5:0.00360202 6:0.280794 
11757.16001115906 1:1 2:0.101896 3:0.0103827 4:0.0145412 5:0.00943883 6:0.0964344 7:1 
32768 1:0.004 2:0.0545229 3:0.00297274 4:0.0183402 5:0.0125522 6:0.788088 
32768 1:0.02 2:0.075819 3:0.00574852 4:0.00668108 5:0.00562267 6:0.196434 7:1 
32768 1:0.008 2:0.0927959 3:0.00876677 4:0.0121831 5:0.00751153 6:0.229254 7:1 
32768 1:0.004 2:0.0735918 3:0.00541575 4:0.0393005 5:0.0140896 6:0.255997 
32768 4:0.0200432 5:0.00892818 6:0.153566 
32768 4:0.0224013 5:0.0183643 6:0.217828 7:1 
1687.675016404427 1:1 2:0.123095 3:0.00142519 4:0.178162 5:0.070643 6:0.686386 7:1 
32768 4:0.0125761 5:0.01127 6:0.263614 
32768 4:0.0190607 5:0.00846694 6:0.574068 7:1 
32768 1:0.008 2:0.0635541 3:0.00390505 4:0.0155237 5:0.00774764 6:0.10389 7:1 
32768 4:0.00766359 5:0.00711619 6:0.177229 7:1 
32768 1:0.004 2:0.161592 3:0.0261119 4:0.00609157 5:0.00569405 6:0.101621 7:1 
32768 1:0.004 2:0.0427959 3:0.00183149 4:0.00923561 5:0.00841753 6:0.274311 7:1 
32768 1:0.052 2:0.0524265 3:0.00274854 4:0.0155237 5:0.00692401 6:0.493274 7:1 
32768 1:0.008 2:0.117315 3:0.001192 4:0.0229908 5:0.0132934 6:0.0305511 
32768 1:0.004 2:0.130092 3:0.0169238 4:0.0170957 5:0.0112948 6:0.0800648 7:1 
32768 1:0.004 2:0.0740915 3:0.00548955 4:0.00707408 5:0.00559796 6:0.127715 7:1 
32768 1:0.008 2:0.0708874 3:0.00502502 4:0.0155237 5:0.00912311 6:0.662399 
32768 1:0.012 2:0.0856901 3:0.0073428 4:0.0113971 5:0.00655063 6:0.748136 
32768 1:0.024 2:0.0562796 3:0.00316739 4:0.00805659 5:0.00667417 6:0.587358 
10022.99388184517 1:0.052 2:0.157609 3:0.000691149 4:0.0377284 5:0.026175 6:0.0481361 7:1 
32768 1:0.04 2:0.147425 3:4.21672e-06 4:0.047488 5:0.0250467 6:0.0817666 7:1 
29059.39615616985 4:0.0294753 5:0.0398501 6:0.163452 7:1 
32768 1:0.016 2:0.0520917 3:0.00312799 4:0.0147377 5:0.00962827 6:0.102431 7:1 
690.1635638516868 1:1 2:0.236756 3:0.0979173 4:0.210061 5:0.0949182 6:0.589141 7:1 
32768 4:0.0174887 5:0.0109159 6:0.526985 
21556.6820402688 1:0.432 2:0.0733362 3:0.0053782 4:0.0102181 5:0.00387656 6:0.755105 
11700.65502784833 1:0.004 2:0.26062 3:0.0679226 4:0.0178817 5:0.00926312 6:0.0395462 
32768 1:0.004 2:0.146092 4:0.0115936 5:0.012511 6:0.150081 7:1 
32768 1:0.004 2:0.0700915 3:0.00491282 4:0.0218118 5:0.00971338 6:0.0971637 7:1 
32768 1:0.004 2:0.0728874 3:0.00531257 4:0.00786009 5:0.00823907 6:0.0658023 7:1 
5177.518305393765 1:0.196 2:0.12503 3:0.0156324 4:0.129691 5:0.0520783 6:0.690113 7:1 
1693.945668810603 1:0.94 2:0.159617 3:0.0532569 4:0.0835135 5:0.0331951 6:0.498703 7:1 
30665.76499832131 1:0.012 2:0.11851 3:0.0121263 4:0.00825309 5:0.00766802 6:0.224878 
32768 1:0.008 2:0.0551918 3:1.6e-05 4:0.0239733 5:0.0101444 6:0.510049 
32768 1:0.008 2:0.0723098 3:0.00522871 4:0.0110041 5:0.0112865 6:0.0880065 7:1 
32768 1:0.008 2:0.0478416 3:0.00243391 4:0.0117901 5:0.0101417 6:0.342058 7:1 
32768 1:0.064 2:0.0621033 3:0.000728285 4:0.0178817 5:0.0127443 6:0.0541329 
19559.94582838748 1:0.004 2:0.138796 3:0.0192643 4:0.0106111 5:0.0116764 6:0.0917342 
32768 4:0.00537106 5:0.007226 6:0.241086 
8036.714204446071 1:0.008 2:0.197467 3:0.0389984 4:0.0495186 5:0.0490199 6:0.152512 7:1 
32768 1:0.024 2:0.0540802 3:0.00271445 4:0.0141482 5:0.00686635 6:0.0901135 7:1 
274.3364158226029 1:1 2:0.116907 3:0.174122 4:0.0927491 5:0.0621211 6:0.669206 7:1 
32768 1:0.008 2:0.105489 3:0.011128 4:0.0086461 5:0.00566934 6:0.0747164 7:1 
32768 1:0.076 2:0.0552683 3:0.00305459 4:0.0200432 5:0.0083434 6:0.442707 
431.9372855322788 1:0.024 2:0.29278 3:0.298785 4:0.0487981 5:0.0217521 6:0.324068 
32768 1:0.008 2:0.0613559 3:0.00357428 4:0.0448025 5:0.017645 6:0.548379 
32768 1:0.004 2:0.214796 3:0.0461373 4:0.0167027 5:0.0110449 6:0.35154 7:1 
32768 1:0.004 2:0.204887 3:0.0419788 4:0.0110041 5:0.00954316 6:0.297083 7:1 
32768 1:0.004 2:0.112 3:0.012544 4:0.00137552 5:0.00290468 6:0.112966 7:1 
32768 1:0.02 2:0.0590733 3:0.00348966 4:0.00727058 5:0.00606468 6:0.222447 
32768 1:0.004 2:0.0652041 3:0.00425158 4:0.0275103 5:0.0112014 6:0.0554295 
32768 1:0.008 2:0.0993775 3:0.01176 4:0.0218118 5:0.00922469 6:0.121556 7:1 
32768 1:0.004 2:0.0547959 3:0.00300259 4:0.0119866 5:0.0139935 6:0.258428 7:1 
16352.30792708009 1:0.976 2:0.059306 3:0.0035172 4:0.00353704 5:0.00676477 6:0.093436 7:1 
32768 1:0.008 2:0.0804437 3:0.00647119 4:0.0106111 5:0.0116736 6:0.0640194 7:1 
32768 1:0.008 2:0.0638367 3:0.00407512 4:0.00491256 5:0.00589172 6:0.129092 7:1 
32768 4:0.0178817 5:0.0127855 6:0.0858995 
288.5585534374678 1:1 2:0.209955 3:0.0440809 4:0.0408725 5:0.0241956 6:0.388331 
10538.87082055709 1:0.172 2:0.162827 3:0.0265128 4:0.0689723 5:0.0214886 6:0.625932 7:1 
32768 4:0.0117901 5:0.0151988 6:0.456321 7:1 
32768 1:0.22 2:0.0689473 3:0.000336623 4:0.0178817 5:0.0101252 6:0.23363 7:1 
10627.10778520206 1:0.52 2:0.0783182 3:0.00613375 4:0.0176197 5:0.0145701 6:0.781929 
32768 4:0.00786009 5:0.00513947 6:0.346921 
32768 1:0.052 2:0.0671376 3:0.00450746 4:0.0104146 5:0.00772293 6:0.315559 
1963.370999327898 1:0.172 2:0.208178 3:0.00083664 4:0.0186677 5:0.0196025 6:0.0188817 
32768 1:0.016 2:0.0494437 3:0.00244468 4:0.00707408 5:0.00636668 6:0.177796 7:1 
32768 1:0.064 2:0.0637725 3:0.00388623 4:0.00504356 5:0.00617175 6:0.123015 
32768 4:0.00943211 5:0.00623215 6:0.0965964 7:1 
32768 1:0.008 2:0.267356 3:0.107295 4:0.0143447 5:0.00728091 6:0.151864 7:1 
32768 1:0.004 2:0.108 3:0.011664 4:0.0257418 5:0.011163 6:0.110535 7:1 
662.9421705700572 1:1 2:0.239187 3:0.0572106 4:0.197878 5:0.088697 6:0.69295 7:1 
32768 1:0.008 2:0.164012 3:0.0350207 4:0.0106111 5:0.0143916 6:0.0332253 7:1 
32768 4:0.0241698 5:0.0121184 6:0.0811183 7:1 
20612.23021006604 1:0.004 2:0.214092 3:0.0458352 4:0.0222048 5:0.00940314 6:0.0594003 7:1 
31237.19079019791 1:0.012 2:0.122097 3:0.00427689 4:0.0888845 5:0.0322946 6:0.202107 
32768 1:0.004 2:0.0855918 3:0.00732595 4:0.0224013 5:0.0101801 6:0.0790924 7:1 
25095.73447014947 1:0.016 2:0.237978 3:0.0566335 4:0.0807624 5:0.028624 6:0.491329 
32768 1:0.276 2:0.0706354 3:0.00498936 4:0.00117901 5:0.00336866 6:0.10624 7:1 
32768 1:0.004 2:0.22862 3:0.0522669 4:0.0147377 5:0.00967494 6:0.1859 7:1 
31799.54247388312 1:0.004 2:0.242796 3:0.0589498 4:0.0137552 5:0.00977378 6:0.127147 
24251.9249922302 1:0.108 2:0.156985 3:0.0246444 4:0.0787974 5:0.0242148 6:0.531199 7:1 
6331.123445852412 1:0.008 2:0.225268 3:0.0507455 4:0.0548241 5:0.0362893 6:0.551945 7:1 
3098.914208256363 1:0.008 2:0.312 3:0.246398 4:0.0351739 5:0.013837 6:0.399757 
32768 1:0.004 2:0.0860915 3:0.00741175 4:0.0194537 5:0.0102323 6:0.233225 7:1 
32768 1:0.016 2:0.171555 3:0.0243122 4:0.0389074 5:0.0103778 6:0.253241 
32768 4:0.0147377 5:0.00889523 6:0.0557536 7:1 
32768 1:0.004 2:0.064 3:0.004096 4:0.0271173 5:0.0102817 6:0.224878 7:1 
32768 1:0.028 2:0.0804002 3:0.000186591 4:0.0141482 5:0.0105068 6:0.0223663 7:1 
5444.741187383957 1:0.06 2:0.146878 3:0.000782266 4:0.000982511 5:0.0044284 6:0.0060778 7:1 
32768 1:0.044 2:0.0593108 3:0.00351777 4:0.0198467 5:0.00949923 6:0.0918963 7:1 
32768 1:0.004 2:0.196 3:0.038416 4:0.0235803 5:0.00997145 6:0.232091 7:1 
32768 4:0.00412655 5:0.00509005 6:0.0451378 7:1 
32768 1:0.02 2:0.120476 3:0.0145146 4:0.0387109 5:0.0101005 6:0.341005 
17452.38854001664 1:0.004 2:0.250796 3:0.0628986 4:0.0225978 5:0.0170135 6:0.183468 7:1 
32768 4:0.00628807 5:0.00563639 6:0.125284 
-32768 1:0.004 2:0.0467959 3:0.00218985 4:0.00294753 5:0.00374753 6:0.125527 7:1 
-9536.579944487228 1:0.028 2:0.0558548 3:0.000144982 4:0.0448025 5:0.0215764 6:0.0366288 7:1 
-32768 4:0.0662213 5:0.0360861 6:0.0563209 
-29235.83893387786 4:0.0320299 5:0.0191083 6:0.0269854 
-9491.71056044457 1:1 2:0.0809386 3:3.37946e-06 4:0.090784 5:0.0329261 6:0.181686 
-32768 1:0.004 2:0.0415918 3:0.00172987 4:0.0326194 5:0.0136943 6:0.0736629 
-32768 1:0.004 2:0.0452041 3:0.00204341 4:0.0135587 5:0.0130134 6:0.0295786 7:1 
-32768 1:0.02 2:0.110058 3:0.000132249 4:0.0290823 5:0.0147101 6:0.073825 
-32768 1:0.004 2:0.120218 3:0.00207122 4:0.0157202 5:0.00971887 6:0.0388979 7:1 
-32768 1:0.008 2:0.174423 3:0.00531583 4:0.0104146 5:0.011572 6:0.0264182 7:1 
-32768 1:0.244 2:0.0754471 3:2.82269e-05 4:0.0143447 5:0.0109186 6:0.0526742 7:1 
-32768 1:0.004 2:0.156 3:0.024336 4:0.0104146 5:0.011572 6:0.0425446 7:1 
-32768 4:0.0233838 5:0.0159318 6:0.0996759 7:1 
-32768 4:0.0282963 5:0.0106166 6:0.152026 7:1 
-32768 1:0.004 2:0.102796 3:0.014203 4:0.0180782 5:0.0112975 6:0.097893 7:1 
-32768 4:0.0204362 5:0.0116242 6:0.114182 
-32768 1:0.024 2:0.0917041 3:0.0002271 4:0.0262003 5:0.0153196 6:0.152431 7:1 
-19138.06495865445 1:0.02 2:0.158124 3:0.000255113 4:0.0495841 5:0.015973 6:0.290924 
-32768 1:0.004 2:0.06 3:0.0036 4:0.0084496 5:0.0080716 6:0.0487034 7:1 
-32768 1:0.004 2:0.126887 3:0.0161004 4:0.0170957 5:0.013384 6:0.102431 7:1 
-537.0388393849504 1:0.552 2:0.356146 3:0.0481263 4:0.101395 5:0.0809466 6:0.624068 
-32768 1:0.008 2:0.096 3:0.011452 4:0.0237768 5:0.0191357 6:0.158428 7:1 
-32768 1:0.004 2:0.11219 3:0.0122016 4:0.0200432 5:0.0116626 6:0.13987 7:1 
-32768 1:0.012 2:0.079505 3:5.77092e-05 4:0.0225978 5:0.0132138 6:0.15859 7:1 
-32768 1:0.012 2:0.147516 3:0.0238885 4:0.0606537 5:0.0171261 6:0.45705 
-32768 1:0.004 2:0.2 3:0.04 4:0.0538416 5:0.0209834 6:0.463371 
-32768 1:0.004 2:0.153592 3:0.0235904 4:0.0127726 5:0.00734131 6:0.110049 
-32768 1:0.124 2:0.105292 3:0.00902157 4:0.0500426 5:0.0157753 6:0.479984 7:1 
-32768 1:0.004 2:0.0528874 3:0.00279708 4:0.0157202 5:0.00712991 6:0.153241 
-32768 1:0.008 2:0.16379 3:0.0272043 4:0.0440165 5:0.0176285 6:0.445543 
-32768 4:0.0198467 5:0.011001 6:0.202917 
-32768 1:0.004 2:0.134796 3:0.0181699 4:0.0086461 5:0.00816769 6:0.0884927 7:1 
-32768 1:0.02 2:0.0783685 3:0.000139292 4:0.0327504 5:0.0148089 6:0.340357 
-32768 1:0.004 2:0.178796 3:0.031968 4:0.0188642 5:0.00957885 6:0.201297 7:1 
-32768 1:0.004 2:0.144 3:0.020736 4:0.0292133 5:0.0156271 6:0.326256 7:1 
-32768 1:0.004 2:0.200388 3:0.0401552 4:0.039235 5:0.0189188 6:0.452188 7:1 
-32768 1:0.008 2:0.196053 3:0.037937 4:0.0436235 5:0.0177905 6:0.527147 
-32768 4:0.0174887 5:0.0095157 6:0.24222 
-32768 1:0.012 2:0.0536254 3:0.0028393 4:0.0176852 5:0.00589172 6:0.25 
-32768 1:0.008 2:0.0884437 3:0.00782229 4:0.0365494 5:0.0117066 6:0.516694 7:1 
-32768 4:0.0282308 5:0.00790687 6:0.408995 7:1 
-32768 1:0.02 2:0.0823357 3:0.000595923 4:0.0520076 5:0.0163848 6:0.793598 
-32768 1:0.008 2:0.167287 3:0.0279851 4:0.0198467 5:0.00705304 6:0.335008 7:1 
-32768 1:0.02 2:0.0586685 3:0.00098038 4:0.0161132 5:0.0134225 6:0.327958 
-32768 1:0.004 2:0.0779327 3:0.00185429 4:0.0145412 5:0.0123792 6:0.31483 7:1 
-32768 1:0.016 2:0.0862399 3:0.000165129 4:0.0125761 5:0.0121815 6:0.274878 7:1 
-32768 1:0.012 2:0.123842 3:0.00603915 4:0.0271173 5:0.0105398 6:0.609319 
-32768 1:0.008 2:0.0646667 3:0.0001 4:0.0109386 5:0.00737975 6:0.251864 
-32768 1:0.012 2:0.0779959 3:0.000383311 4:0.0148687 5:0.0101636 6:0.355592 
-32768 1:0.008 2:0.0570493 3:7.00698e-05 4:0.0196502 5:0.0121294 6:0.550162 
-32768 4:0.0121176 5:0.00718757 6:0.382982 
-32768 4:0.0115936 5:0.00978201 6:0.370259 
-32768 4:0.0084496 5:0.00829947 6:0.295138 
-32768 1:0.004 2:0.144 3:0.020736 4:0.00569857 5:0.00646826 6:0.20859 7:1 
-32768 1:0.008 2:0.0875986 3:0.00138415 4:0.00687758 5:0.00382989 6:0.261588 7:1 
-32768 4:0.0110041 5:0.00695146 6:0.419611 
-32768 4:0.00687758 5:0.00603174 6:0.315397 
-32768 1:0.004 2:0.048 3:0.002304 4:0.00432305 5:0.00373655 6:0.269935 
-32768 1:0.004 2:0.0427959 3:0.00183149 4:0.00687758 5:0.00433505 6:0.745219 
-32768 1:0.012 2:0.0462653 3:0.00214048 4:0.00582957 5:0.00548539 6:0.852026 
-32768 1:0.04 2:0.0753038 3:1.7497e-05 4:0.0290168 5:0.0204673 6:0.0076175 7:1 
-32768 1:0.04 2:0.0753038 3:1.7497e-05 4:0.0290168 5:0.0204673 6:0.0076175 7:1 
-32768 1:0.012 2:0.0706109 3:0.000760681 4:0.0381214 5:0.0193142 6:0.0145867 
-32768 1:0.016 2:0.148046 3:0.0219175 4:0.0196502 5:0.0124396 6:0.00705024 7:1 
-17303.19430373787 1:0.008 2:0.119018 3:0.0020727 4:0.084365 5:0.0276878 6:0.0824959 7:1 
-12652.01067863707 1:1 2:0.107577 3:1.58419e-05 4:0.0257418 5:0.015229 6:0.026094 
-32768 1:0.004 2:0.164 3:0.026896 4:0.0216152 5:0.0143559 6:0.0272285 7:1 
-32768 1:0.004 2:0.0427959 3:0.00183149 4:0.0288858 5:0.0178975 6:0.0382496 7:1 
-32768 1:0.216 2:0.0702517 3:5.14081e-06 4:0.0141482 5:0.00932078 6:0.0180713 7:1 
-32768 1:0.016 2:0.212069 3:0.0219497 4:0.0151307 5:0.0104409 6:0.0198541 
-32768 1:0.016 2:0.212069 3:0.0984914 4:0.0151307 5:0.0104409 6:0.0205835 
-15190.49662762551 1:1 2:0.0942682 3:0.000471984 4:0.0383834 5:0.0160938 6:0.0640194 
-32768 1:0.004 2:0.056183 3:0.00315653 4:0.0090391 5:0.00844773 6:0.015154 7:1 
-32768 1:0.112 2:0.0760445 3:4.12133e-06 4:0.0212222 5:0.0099687 6:0.0474878 
-20706.99932886586 1:1 2:0.0793196 3:1.59333e-05 4:0.0218118 5:0.0151741 6:0.0504052 7:1 
-32768 1:0.016 2:0.0500458 3:0.00250458 4:0.0227943 5:0.0139139 6:0.0535656 7:1 
-32768 1:0.004 2:0.189592 3:0.035945 4:0.0224013 5:0.00974632 6:0.0560778 
-32768 1:0.004 2:0.0820915 3:0.00673902 4:0.0163097 5:0.00799473 6:0.0516207 7:1 
-32768 1:1 2:0.148495 3:0.020417 4:0.141285 5:0.0707748 6:0.48363 7:1 
-32768 1:0.316 2:0.0864988 3:0.000388872 4:0.0151307 5:0.00831045 6:0.0559157 7:1 
-32768 1:0.016 2:0.320826 3:0.112093 4:0.0692343 5:0.0217686 6:0.265397 
-32768 1:0.008 2:0.0593389 3:4.25674e-05 4:0.0308509 5:0.0118603 6:0.136953 7:1 
-17710.98650471258 1:1 2:0.122315 3:0.014961 4:0.112596 5:0.0257083 6:0.510778 7:1 
-32768 1:0.02 2:0.150684 3:0.00189231 4:0.0121831 5:0.0104492 6:0.0548622 
-32768 1:0.02 2:0.209742 3:0.0102309 4:0.0225978 5:0.0146442 6:0.105024 
-32768 1:0.064 2:0.0659357 3:2.82927e-05 4:0.0131657 5:0.010386 6:0.060859 7:1 
-32768 1:0.128 2:0.065456 3:3.79551e-05 4:0.0131657 5:0.00954865 6:0.0619125 7:1 
-32768 1:0.008 2:0.0913162 3:0.0152388 4:0.0161132 5:0.0130107 6:0.0773096 7:1 
-8240.033244263359 1:0.508 2:0.139597 3:0.00429866 4:0.127333 5:0.0346804 6:0.632577 
-14661.25766233169 1:0.504 2:0.150398 3:0.0226197 4:0.0404795 5:0.018249 6:0.202755 7:1 
-32768 1:0.052 2:0.0562202 3:3.62886e-06 4:0.00982511 5:0.00999341 6:0.0480551 7:1 
-4061.147246718953 1:0.356 2:0.169011 3:0.0285648 4:0.148556 5:0.0306913 6:0.753241 7:1 
-2058.933765693749 1:0.988 2:0.13014 3:0.0169364 4:0.118491 5:0.0297606 6:0.607699 7:1 
-1955.640299954371 4:0.0239733 5:0.0118164 6:0.125365 
-32768 1:0.004 2:0.188 3:0.035344 4:0.00727058 5:0.00826927 6:0.0381686 7:1 
-32768 1:0.016 2:0.135004 3:0.00528121 4:0.0653043 5:0.0189765 6:0.357861 
-32768 1:0.032 2:0.123603 3:0.0231836 4:0.0269863 5:0.0118631 6:0.154295 7:1 
-32768 1:0.012 2:0.0836495 3:0.00699724 4:0.0387109 5:0.0162475 6:0.23128 
-32582.2579477829 4:0.0799109 5:0.0173787 6:0.480551 
-32768 4:0.0163097 5:0.0103915 6:0.104214 7:1 
-32768 1:0.02 2:0.201459 3:0.00601305 4:0.0286893 5:0.0183478 6:0.185332 7:1 
-32768 1:0.04 2:0.0734662 3:0.00574266 4:0.0188642 5:0.0141939 6:0.122528 7:1 
-32768 4:0.0119866 5:0.0127718 6:0.0777958 7:1 
-32768 1:0.004 2:0.0646196 3:0.00417569 4:0.0182747 5:0.00961454 6:0.120421 7:1 
-32768 1:0.004 2:0.176207 3:0.0341358 4:0.0200432 5:0.0121843 6:0.138412 7:1 
-32768 1:0.048 2:0.0528951 3:6.29499e-07 4:0.00805659 5:0.00870854 6:0.0548622 7:1 
-154.1192811148447 1:0.152 2:0.772403 3:0.823215 4:0.114757 5:0.0550187 6:0.806159 7:1 
-32768 4:0.0284928 5:0.0108665 6:0.199433 
-32768 1:0.008 2:0.112531 3:0.0136278 4:0.0267243 5:0.0122007 6:0.18752 
-32768 1:0.008 2:0.188444 3:0.035511 4:0.0337984 5:0.0163656 6:0.240276 
-32768 1:0.004 2:0.12 3:0.0144 4:0.0151307 5:0.00838733 6:0.110697 7:1 
-397.6817868328475 1:0.152 2:0.796022 3:0.0429713 4:0.108666 5:0.0514331 6:0.806078 7:1 
-32768 1:0.008 2:0.0677077 3:0.00462532 4:0.00353704 5:0.00576817 6:0.0252026 7:1 
-9293.576416727863 1:1 2:0.0788892 3:0.000232517 4:0.0161132 5:0.00769822 6:0.11953 
-32768 1:0.016 2:0.0514662 3:0.00252079 4:0.0133622 5:0.0122557 6:0.0996759 7:1 
-32768 1:0.004 2:0.122796 3:0.0150788 4:0.0131657 5:0.0129585 6:0.0987034 7:1 
-32768 1:0.004 2:0.282796 3:0.0799735 4:0.0330124 5:0.0177877 6:0.255916 7:1 
-32768 1:0.004 2:0.189204 3:0.0357982 4:0.00923561 5:0.00753624 6:0.0712318 7:1 
-32768 1:0.124 2:0.0608211 3:0.000291296 4:0.0220083 5:0.010224 6:0.17966 7:1 
-32768 4:0.0259383 5:0.0643916 6:0.216856 7:1 
-32768 1:0.008 2:0.0629119 3:0.00452161 4:0.0222048 5:0.0113332 6:0.187763 
-32768 1:0.008 2:0.0629119 3:0.00452161 4:0.0106111 5:0.00787667 6:0.0893841 7:1 
-32768 1:0.016 2:0.0539897 3:0.00291489 4:0.00746709 5:0.00953492 6:0.0645867 7:1 
-32768 4:0.0178817 5:0.0110394 6:0.158104 
-32768 1:0.02 2:0.180287 3:0.0775803 4:0.0237768 5:0.0193471 6:0.211912 7:1 
-32768 1:0.008 2:0.0752583 3:0.00642738 4:0.0145412 5:0.0073468 6:0.129579 7:1 
-32768 1:0.008 2:0.226602 3:0.0513485 4:0.0204362 5:0.0113579 6:0.18282 
-32768 1:0.04 2:0.0765716 3:0.00615751 4:0.0188642 5:0.0141939 6:0.168639 7:1 
-32768 1:0.008 2:0.0630458 3:0.00454954 4:0.0196502 5:0.0104656 6:0.180551 
-32768 1:0.004 2:0.258796 3:0.0669753 4:0.0168992 5:0.00897485 6:0.156645 7:1 
-32768 4:0.0110041 5:0.00890072 6:0.102431 7:1 
-32768 1:0.084 2:0.0818461 3:6.55527e-05 4:0.0505666 5:0.0196189 6:0.476661 7:1 
-32768 4:0.0102181 5:0.00960905 6:0.0958671 7:1 
-32768 4:0.0215497 5:0.0106468 6:0.205186 7:1 
-32768 1:0.032 2:0.120358 3:0.0144861 4:0.0261348 5:0.0127251 6:0.253079 
-32768 1:0.012 2:0.251592 3:0.0632983 4:0.0451955 5:0.0248435 6:0.438331 7:1 
-32235.13388502374 1:0.008 2:0.470136 3:0.23928 4:0.0151307 5:0.00850538 6:0.146272 7:1 
-32768 1:0.028 2:0.144901 3:0.0209964 4:0.0583612 5:0.0338568 6:0.568476 
-32768 1:0.004 2:0.0412041 3:0.00169778 4:0.00923561 5:0.00820338 6:0.0893031 7:1 
-32768 1:0.052 2:0.0551941 3:8.8152e-06 4:0.00982511 5:0.00999341 6:0.0966775 7:1 
-32768 1:0.02 2:0.111917 3:0.000998851 4:0.00530556 5:0.00600977 6:0.0520259 7:1 
-32768 1:0.004 2:0.212 3:0.044944 4:0.0333399 5:0.00992203 6:0.333468 7:1 
-32768 1:0.076 2:0.0723755 3:0.00519649 4:0.0683173 5:0.0258374 6:0.694895 7:1 
-32768 1:0.004 2:0.176 3:0.030976 4:0.0137552 5:0.0122062 6:0.141329 7:1 
-32768 1:0.004 2:0.0412041 3:0.00169778 4:0.00510906 5:0.0059027 6:0.0524311 7:1 
-32768 1:0.004 2:0.0455918 3:0.00207861 4:0.0178817 5:0.0115556 6:0.1859 7:1 
-32768 4:0.0127726 5:0.00920821 6:0.134198 
-32768 1:0.004 2:0.134092 4:0.0190607 5:0.0117615 6:0.20235 
-32768 1:0.004 2:0.0772041 3:0.00596048 4:0.0090391 5:0.00674555 6:0.0959481 7:1 
-32768 4:0.00550206 5:0.0103256 6:0.058752 7:1 
-32768 1:0.092 2:0.0807974 3:0.00944679 4:0.0444095 5:0.01552 6:0.482091 
-32768 1:0.008 2:0.0633979 3:0.00459113 4:0.0100216 5:0.00759115 6:0.108023 
-32768 1:0.14 2:0.11576 3:0.0101767 4:0.0624877 5:0.0246568 6:0.682253 7:1 
-32768 1:0.196 2:0.0653253 3:4.05137e-06 4:0.0229908 5:0.00658632 6:0.252188 7:1 
-32768 1:0.076 2:0.151815 3:0.0262383 4:0.0436235 5:0.0117477 6:0.479903 
-32768 1:0.016 2:0.15108 3:0.0228253 4:0.0416585 5:0.0193718 6:0.459481 7:1 
-32768 1:0.008 2:0.22699 3:0.0515243 4:0.0204362 5:0.0113579 6:0.226742 
-32768 1:0.004 2:0.161592 3:0.0261119 4:0.00962861 5:0.00713541 6:0.10705 7:1 
-32768 1:0.032 2:0.0834381 3:0.00710488 4:0.0343879 5:0.0139468 6:0.400405 7:1 
-32768 1:0.128 2:0.20666 3:4.58417e-05 4:0.0201742 5:0.0120497 6:0.239789 7:1 
-32768 1:0.004 2:0.0460915 3:0.00212443 4:0.0102181 5:0.00644081 6:0.119854 7:1 
-32768 1:0.004 2:0.0772041 3:0.00596048 4:0.00569857 5:0.00700088 6:0.0667747 7:1 
-32768 4:0.00569857 5:0.00907369 6:0.0669368 7:1 
-32768 1:0.008 2:0.0824437 3:0.00679696 4:0.0100216 5:0.00573797 6:0.120016 
-32768 1:0.048 2:0.0670122 3:0.00449063 4:0.0271173 5:0.012931 6:0.325851 
-32768 1:0.004 2:0.240887 3:0.0580267 4:0.0102181 5:0.00730837 6:0.126499 7:1 
-32768 1:0.008 2:0.0621938 3:0.00457936 4:0.0090391 5:0.00667417 6:0.113533 
-32768 1:0.008 2:0.144444 3:0.020864 4:0.0501081 5:0.0119482 6:0.632901 
-32768 1:0.004 2:0.190796 3:0.0364031 4:0.0131657 5:0.00891445 6:0.166045 7:1 
-32768 4:0.0157202 5:0.00957336 6:0.202107 7:1 
-32768 1:0.04 2:0.268244 3:0.0719549 4:0.042641 5:0.0308945 6:0.552107 7:1 
-32768 4:0.00962861 5:0.00923841 6:0.124716 7:1 
-32768 1:0.024 2:0.102611 3:0.0105289 4:0.0113971 5:0.00902702 6:0.148298 7:1 
-32768 1:0.032 2:0.121509 3:0.0147644 4:0.0261348 5:0.0127251 6:0.347812 
-32768 1:0.008 2:0.0746408 3:0.000965223 4:0.0190607 5:0.0124423 6:0.256159 
-32768 1:0.008 2:0.167495 3:0.0300977 4:0.0561996 5:0.0176175 6:0.757212 
-32768 1:0.004 2:0.0775918 3:0.00602048 4:0.00943211 5:0.00650395 6:0.127066 
-32768 1:0.004 2:0.208 3:0.043264 4:0.0104146 5:0.00786295 6:0.141086 7:1 
-32768 4:0.0163097 5:0.0088266 6:0.222853 
-32768 4:0.0133622 5:0.00965023 6:0.187358 7:1 
-32768 1:0.056 2:0.264527 3:0.0574152 4:0.043427 5:0.0293241 6:0.613938 
-32768 1:0.212 2:0.118366 3:0.0141955 4:0.0155237 5:0.00994674 6:0.223339 7:1 
-32768 4:0.00943211 5:0.0111657 6:0.135656 7:1 
-32768 1:0.004 2:0.0775918 3:0.00602048 4:0.0159167 5:0.0103119 6:0.235332 
-32768 1:0.02 2:0.149194 3:0.0244234 4:0.0283618 5:0.012176 6:0.418314 7:1 
-32768 1:0.004 2:0.0460915 3:0.00212443 4:0.0088426 5:0.00835164 6:0.13128 7:1 
-32768 1:0.056 2:0.181407 3:0.0394804 4:0.0365494 5:0.0199045 6:0.54846 
-32768 1:0.004 2:0.0806196 3:0.00649952 4:0.00334054 5:0.00556227 6:0.0505673 7:1 
-31826.68590477297 4:0.00786009 5:0.00808258 6:0.119287 7:1 
-32768 1:0.016 2:0.0856198 3:0.00733075 4:0.0113971 5:0.00902702 6:0.176661 7:1 
-32768 1:0.008 2:0.211209 3:0.0446092 4:0.0280998 5:0.0325472 6:0.436386 7:1 
-32768 4:0.0309819 5:0.0127004 6:0.482172 
-32768 1:0.004 2:0.162092 3:0.0262737 4:0.0312439 5:0.0157753 6:0.495219 7:1 
-32768 4:0.00668108 5:0.00823084 6:0.107699 7:1 
-32768 1:0.02 2:0.0714574 3:8.48556e-05 4:0.0407415 5:0.0159977 6:0.672853 
-32768 1:0.012 2:0.0610329 3:0.00360062 4:0.0159167 5:0.0103119 6:0.268395 
-32768 1:0.004 2:0.148 3:0.021904 4:0.00805659 5:0.00734131 6:0.138412 
-32768 4:0.0119866 5:0.00837635 6:0.205673 
-25051.48241959594 1:1 2:0.104156 3:4.14516e-05 4:0.0104146 5:0.0073166 6:0.179254 7:1 
-32768 1:0.024 2:0.0948416 3:0.00899494 4:0.00746709 5:0.00670712 6:0.130713 7:1 
-32768 1:0.004 2:0.0492041 3:0.00242105 4:0.00687758 5:0.00467274 6:0.122204 7:1 
-32768 1:0.004 2:0.0915916 3:0.00894233 4:0.0419205 5:0.0150697 6:0.74684 
-32768 1:0.088 2:0.206477 3:0.0877398 4:0.0312439 5:0.020352 6:0.567504 7:1 
-32768 1:0.008 2:0.173398 3:0.0300668 4:0.00451955 5:0.00557599 6:0.0830632 7:1 
-32768 4:0.0161132 5:0.014765 6:0.295624 7:1 
-32768 1:0.02 2:0.0716969 3:3.02658e-05 4:0.0329469 5:0.0178289 6:0.601378 7:1 
-32768 4:0.0100216 5:0.00852734 6:0.186386 
-32768 1:0.192 2:0.0456986 3:1.36049e-05 4:0.0145412 5:0.00954865 6:0.271313 7:1 
-32768 1:0.008 2:0.0586021 3:0.0034342 4:0.0159167 5:0.00963925 6:0.299676 
-32768 4:0.0161132 5:0.0151933 6:0.307618 7:1 
-32768 1:0.008 2:0.0969141 3:0.00511523 4:0.0149342 5:0.0113826 6:0.289222 7:1 
-18639.19075344622 1:1 2:0.0721672 3:9.82492e-05 4:0.0112006 5:0.00618274 6:0.218152 
-32768 4:0.00569857 5:0.00878542 6:0.113857 7:1 
-32768 1:0.064 2:0.136762 3:0.018704 4:0.0383179 5:0.0227021 6:0.764506 
-32768 1:0.004 2:0.0787959 3:0.00620879 4:0.00275103 5:0.00488414 6:0.056483 7:1 
-32768 4:0.0147377 5:0.0141582 6:0.298055 7:1 
-32768 1:0.004 2:0.0467959 3:0.00218985 4:0.00943211 5:0.00650395 6:0.191815 
-32768 1:0.004 2:0.190796 3:0.0364031 4:0.0174887 5:0.0120086 6:0.355267 7:1 
-32768 1:0.024 2:0.0686879 3:0.00102504 4:0.0347809 5:0.0103723 6:0.708914 7:1 
-32768 1:0.008 2:0.115122 3:0.0118448 4:0.00196502 5:0.00490336 6:0.0417342 7:1 
-32768 1:0.004 2:0.0695918 3:0.00484301 4:0.0131657 5:0.00891445 6:0.276418 7:1 
-32768 1:0.012 2:0.060993 3:0.00359113 4:0.0139517 5:0.0083434 6:0.302674 7:1 
-32768 1:0.012 2:0.0622676 3:0.00380041 4:0.00255453 5:0.00473589 6:0.0572934 7:1 
-32768 1:0.012 2:0.102132 3:0.00939878 4:0.0208292 5:0.0117972 6:0.456726 7:1 
-13363.49361533701 4:0.00294753 5:0.00715462 6:0.0660454 7:1 
-32768 1:0.004 2:0.356 3:0.126736 4:0.0234493 5:0.0140155 6:0.51872 
-32768 4:0.0194537 5:0.00472216 6:0.436791 7:1 
-32768 1:0.024 2:0.086527 3:0.00748692 4:0.0123796 5:0.00713266 6:0.280065 7:1 
-32768 1:0.096 2:0.0504412 3:8.74948e-05 4:0.00982511 5:0.00814024 6:0.225527 
-32768 1:0.004 2:0.138092 3:0.0190693 4:0.0108076 5:0.00789315 6:0.248379 
-32768 1:0.004 2:0.149592 3:0.0223777 4:0.000982511 5:0.00428564 6:0.0240681 7:1 
-32768 1:0.004 2:0.138092 3:0.0190693 4:0.0090391 5:0.00706951 6:0.208752 7:1 
-32768 1:0.02 2:0.0478475 3:2.7695e-05 4:0.00707408 5:0.00694872 6:0.164668 7:1 
-32768 1:0.008 2:0.193864 3:0.0375832 4:0.0100216 5:0.0077092 6:0.232982 7:1 
-32768 1:0.016 2:0.0527295 3:0.00262272 4:0.0167027 5:0.0066577 6:0.388655 7:1 
-32768 1:0.008 2:0.107398 3:0.0115343 4:0.0131657 5:0.00854931 6:0.320016 7:1 
-32768 4:0.0112006 5:0.00916703 6:0.274716 7:1 
-8653.908463918893 1:1 2:0.144848 3:0.020981 4:0.0174887 5:0.00823633 6:0.436143 
-32768 1:0.004 2:0.0815918 3:0.00665722 4:0.00609157 5:0.00522183 6:0.152431 7:1 
-32768 1:0.008 2:0.182092 3:0.0331573 4:0.0127726 5:0.00877718 6:0.325284 7:1 
-32768 4:0.0108076 5:0.00841204 6:0.280227 
-32768 1:0.004 2:0.126796 3:0.0160772 4:0.0112006 5:0.0141802 6:0.294652 7:1 
-32768 4:0.0141482 5:0.0115611 6:0.373177 7:1 
-32768 4:0.0106111 5:0.00971063 6:0.281686 7:1 
-32768 4:0.0145412 5:0.0117642 6:0.388412 7:1 
-32768 1:0.004 2:0.0412041 3:0.00169778 4:0.00451955 5:0.00293488 6:0.122609 
-32768 1:0.012 2:0.0596223 3:0.00355481 4:0.00353704 5:0.00338788 6:0.0969206 7:1 
-32768 4:0.0117901 5:0.00789589 6:0.323825 7:1 
-32768 4:0.0145412 5:0.00582583 6:0.408752 7:1 
-32768 1:0.004 2:0.0452041 3:0.00204341 4:0.0159167 5:0.0103119 6:0.459724 
-32768 4:0.0165062 5:0.010419 6:0.482253 7:1 
-32768 4:0.0146722 5:0.00780255 6:0.430875 
-32768 4:0.0133622 5:0.007226 6:0.39376 
-32768 4:0.0172922 5:0.0107539 6:0.512318 
-32768 4:0.0113971 5:0.00910663 6:0.3453 7:1 
-32768 1:0.004 2:0.0427959 3:0.00183149 4:0.000786009 5:0.00404404 6:0.0274716 7:1 
-32768 1:0.016 2:0.0563789 3:0.00287518 4:0.0208292 5:0.00960081 6:0.647488 7:1 
-32768 1:0.004 2:0.0523876 3:0.00274446 4:0.000786009 5:0.00264112 6:0.0292545 7:1 
-32768 1:0.024 2:0.0713028 3:0.00508409 4:0.0121831 5:0.0084642 6:0.404538 7:1 
-32768 1:0.02 2:0.0896045 3:0.00802896 4:0.0149342 5:0.00563914 6:0.496353 
-32768 1:0.004 2:0.204887 3:0.0419788 4:0.00609157 5:0.00383538 6:0.225284 7:1 
-32768 1:0.004 2:0.0855918 3:0.00732595 4:0.0139517 5:0.00795904 6:0.518152 7:1 
-32768 1:0.044 2:0.0459618 3:0.00216996 4:0.00294753 5:0.00632001 6:0.113614 7:1 
-32768 1:0.004 2:0.12 3:0.0144 4:0.0088426 5:0.00864265 6:0.334036 7:1 
-32768 1:0.008 2:0.0809037 3:0.00715791 4:0.00668108 5:0.00530969 6:0.254214 7:1 
-32768 1:0.004 2:0.0667959 3:0.00446169 4:0.00314404 5:0.00546343 6:0.122366 7:1 
-32768 1:0.004 2:0.0888874 3:0.00790097 4:0.0178817 5:0.00612783 6:0.676985 
-32768 1:0.004 2:0.168 3:0.028224 4:0.00353704 5:0.0054799 6:0.141491 7:1 
-32768 1:0.004 2:0.0547959 3:0.00300259 4:0.00393005 5:0.00484296 6:0.157212 7:1 
-32768 1:0.02 2:0.0673979 3:0.00454248 4:0.0113971 5:0.00426093 6:0.452512 
-32768 1:0.004 2:0.0452041 4:0.00393005 5:0.00331924 6:0.161345 7:1 
-32768 4:0.00707408 5:0.00570778 6:0.287358 
-32768 1:0.004 2:0.0495918 3:0.00245934 4:0.00353704 5:0.00820064 6:0.146191 7:1 
-32768 1:0.004 2:0.138796 3:0.0192643 4:0.0086461 5:0.00665221 6:0.353485 
-32768 1:0.004 2:0.0455918 3:0.00207861 4:0.00530556 5:0.00516143 6:0.219611 7:1 
-32768 1:0.004 2:0.056183 3:0.00315653 4:0.0119866 5:0.00381617 6:0.489708 
-8326.230739016828 4:0.00412655 5:0.00957885 6:0.171961 7:1 
-32768 4:0.0127726 5:0.00912585 6:0.524959 7:1 
-32768 4:0.0129691 5:0.00547167 6:0.532982 7:1 
-3123.924707545439 4:0.00923561 5:0.00681968 6:0.381037 7:1 
-32768 4:0.0141482 5:0.00489238 6:0.580956 7:1 
-32768 1:0.016 2:0.123114 3:0.0151571 4:0.000196502 5:0.00318471 6:0.0133712 7:1 
-27534.43464038174 4:0.00727058 5:0.00522458 6:0.306159 
-32768 4:0.00982511 5:0.0063255 6:0.411831 
-32768 1:0.988 2:0.0734742 3:0.00540137 4:0.0084496 5:0.01222 6:0.359806 7:1 
-32768 1:0.016 2:0.0551099 3:0.00284899 4:0.0167027 5:0.0066577 6:0.730794 7:1 
-32768 1:0.008 2:0.163708 3:0.0346302 4:0.0133622 5:0.00551834 6:0.591977 7:1 
-32768 4:0.00962861 5:0.00605645 6:0.429741 7:1 
-32768 1:0.004 2:0.216 3:0.046656 4:0.00235803 5:0.00268779 6:0.110049 7:1 
-32768 1:0.012 2:0.0776366 3:0.00602744 4:0.00275103 5:0.00166374 6:0.127877 
-32768 1:0.064 2:0.0824595 3:0.0192991 4:0.0186022 5:0.00966121 6:0.845462 
-32768 4:0.00982511 5:0.00741544 6:0.444733 7:1 
-32768 4:0.00805659 5:0.00593839 6:0.375365 
-32768 1:0.004 2:0.0700915 3:0.00491282 4:0.00255453 5:0.00621568 6:0.123663 7:1 
-32768 1:0.008 2:0.0427959 3:0.00183149 4:0.00687758 5:0.00800846 6:0.335089 7:1 
-32768 1:0.008 2:0.126092 3:0.0158991 4:0.00275103 5:0.00168845 6:0.13906 
-32768 4:0.0118556 5:0.00932901 6:0.585981 
-32768 1:0.024 2:0.0559127 3:6.54034e-05 4:0.000786009 5:0.00337689 6:0.0448136 7:1 
-32768 4:0.00805659 5:0.00740995 6:0.397569 7:1 
-32768 1:0.008 2:0.0921938 3:0.0084997 4:0.00117901 5:0.00267681 6:0.0646677 7:1 
-32768 1:0.008 2:0.195398 3:0.0381804 4:0.00117901 5:0.00267681 6:0.0649919 7:1 
-32768 1:0.004 2:0.08 3:0.0064 4:0.00786009 5:0.00333297 6:0.40235 
-32768 1:0.004 2:0.168 3:0.028224 4:0.00648457 5:0.00576268 6:0.334522 7:1 
-32768 1:0.004 2:0.0460915 3:0.00212443 4:0.00137552 5:0.00406325 6:0.0769044 7:1 
-32768 1:0.004 2:0.0867959 3:0.00753352 4:0.00412655 5:0.00423347 6:0.220989 
-32768 4:0.00746709 5:0.00602076 6:0.395543 
-32768 1:0.004 2:0.164 3:0.026896 4:0.00373354 5:0.00525203 6:0.20316 7:1 
-32768 1:0.088 2:0.0861142 3:0.00769289 4:0.0090391 5:0.00737426 6:0.498298 
-32768 4:0.00491256 5:0.0099687 6:0.276823 
-32768 1:0.004 2:0.0907959 3:0.00824389 4:0.00157202 5:0.0050626 6:0.0944084 7:1 
-32768 4:0.0129691 5:0.00943609 6:0.730875 
-32768 1:0.004 2:0.0547959 3:0.00300259 4:0.00137552 5:0.00264935 6:0.0855754 7:1 
-32768 4:0.0102181 5:0.00741819 6:0.599271 7:1 
-32768 4:0.0117901 5:0.00651494 6:0.690113 7:1 
-32768 1:0.028 2:0.0656409 3:0.00430873 4:0.0135587 5:0.00635021 6:0.79611 
-21611.12734567836 4:0.00707408 5:0.0067483 6:0.421475 7:1 
-32768 4:0.0140827 5:0.00782177 6:0.849757 
-32768 1:0.508 2:0.0837527 3:0.0133067 4:0.0131657 5:0.00785197 6:0.795948 
-32768 4:0.00825309 5:0.0120882 6:0.494976 7:1 
-4117.358649682488 4:0.0137552 5:0.00608939 6:0.855186 
-32768 1:0.524 2:0.0501776 3:0.00251351 4:0.0136897 5:0.00924665 6:0.871394 
-32768 1:0.008 2:0.0564437 3:0.00318589 4:0.0110041 5:0.010666 6:0.686548 
-28082.19758777512 4:0.0125106 5:0.00692401 6:0.795219 
-32768 1:0.008 2:0.118796 3:0.0141125 4:0.0132967 5:0.00481002 6:0.885656 
-32768 1:0.004 2:0.0443876 3:0.00197026 4:0.0084496 5:0.00495552 6:0.540194 
-32768 1:0.004 2:0.0587959 3:0.00345696 4:0.00157202 5:0.00285251 6:0.108266 7:1 
-32768 4:0.0115936 5:0.0087964 6:0.749028 7:1 
-32768 1:0.012 2:0.0573468 3:0.00328865 4:0.00386454 5:0.00330002 6:0.264425 
-32768 1:0.004 2:0.0452041 3:0.00204341 4:0.00235803 5:0.00217439 6:0.163533 7:1 
-32768 1:0.004 2:0.113592 3:0.0129031 4:0.00510906 5:0.0047304 6:0.346353 
-32768 1:0.004 2:0.0532041 3:0.00283068 4:0.000589507 5:0.00299253 6:0.0491896 7:1 
-32768 1:0.016 2:0.0842218 3:0.00709332 4:0.0088426 5:0.00543049 6:0.643598 7:1 
-12587.87244467108 4:0.0088426 5:0.00733857 6:0.647326 7:1 
-32768 1:0.012 2:0.0747959 3:0.00559442 4:0.00353704 5:0.00282506 6:0.277147 7:1 
-32768 1:0.012 2:0.0465611 3:0.00216794 4:0.00373354 5:0.00388755 6:0.291815 7:1 
-15825.9005281188 1:0.008 2:0.0415918 3:0.00172987 4:0.00609157 5:0.0028031 6:0.471556 
-32768 1:0.012 2:0.052993 3:0.00280825 4:0.000196502 5:0.00287997 6:0.0269854 7:1 
-32768 1:0.004 2:0.0812041 3:0.00659411 4:0.00314404 5:0.00396991 6:0.250729 7:1 
-32768 4:0.00412655 5:0.00504338 6:0.331442 
-32768 4:0.00451955 5:0.00897211 6:0.376013 7:1 
-32768 1:0.008 2:0.0720363 3:0.00518923 4:0.00235803 5:0.00459313 6:0.212156 7:1 
-32768 1:0.008 2:0.0742113 3:0.00550731 4:0.00235803 5:0.00459313 6:0.212156 7:1 
-32768 1:0.032 2:0.0514895 3:0.00265116 4:0.00982511 5:0.00777235 6:0.891977 
-32768 1:0.06 2:0.0446968 3:0.0019978 4:0.00949761 5:0.00691852 6:0.854214 
-32768 4:0.00805659 5:0.00959807 6:0.737034 7:1 
-32768 4:0.00936661 5:0.0231111 6:0.919935 
-32768 1:0.004 2:0.0926196 3:0.00857839 4:0.00609157 5:0.0039754 6:0.57342 
-32768 1:0.004 2:0.0747959 3:0.00559442 4:0.00766359 5:0.00496101 6:0.733874 
-32768 1:0.004 2:0.088 3:0.007744 4:0.00176852 5:0.00316 6:0.182739 7:1 
-32768 1:0.008 2:0.0433979 3:0.00188338 4:0.00432305 5:0.00344828 6:0.434036 
-32768 1:0.02 2:0.0427959 3:0.00183149 4:0.00609157 5:0.00632825 6:0.624554 7:1 
-32768 1:0.012 2:0.0590845 3:0.00349098 4:0.00157202 5:0.004368 6:0.175041 7:1 
-32768 1:0.004 2:0.0732041 3:0.00535884 4:0.00353704 5:0.00303371 6:0.37893 
-10889.26649668516 1:0.12 2:0.0469255 3:4.85464e-06 4:0.00216152 5:0.0031902 6:0.23825 
-32768 1:0.06 2:0.0493934 3:2.13072e-07 4:0.00157202 5:0.0028937 6:0.177958 7:1 
-32768 1:0.004 2:0.0732041 3:0.00535884 4:0.00759809 5:0.00341808 6:0.827796 
-32768 1:0.06 2:0.0471067 3:1.97983e-06 4:0.00235803 5:0.0031957 6:0.260535 
-29489.22778773005 1:0.1 2:0.0508865 3:4.05296e-06 4:0.00353704 5:0.00179277 6:0.382091 
-32768 1:0.176 2:0.0495565 3:1.53688e-05 4:0.00216152 5:0.00303097 6:0.240276 
-32768 1:0.064 2:0.0457744 3:1.21753e-05 4:0.00275103 5:0.00419229 6:0.30624 7:1 
-32768 1:0.056 2:0.0476761 3:8.007e-06 4:0.00412655 5:0.00304195 6:0.450405 
-32768 1:0.092 2:0.0521222 3:6.19929e-05 4:0.00491256 5:0.00291017 6:0.53282 
-32768 1:0.104 2:0.0491437 3:6.1418e-06 4:0.00471605 5:0.00389853 6:0.512237 
-32768 1:0.004 2:0.0427959 3:0.00183149 4:0.00569857 5:0.00491709 6:0.625932 7:1 
-32768 1:0.004 2:0.0412041 3:0.00169778 4:0.00353704 5:0.00119976 6:0.405916 7:1 
-32768 1:0.004 2:0.0427959 3:0.00183149 4:0.00628807 5:0.00660553 6:0.713452 
-32768 4:0.00471605 5:0.00765704 6:0.544733 7:1 
-23942.49005661675 1:0.092 2:0.0483406 3:0.00233681 4:0.00713958 5:0.00337415 6:0.829417 
-32768 1:0.004 2:0.0667959 3:0.00446169 4:0.00176852 5:0.00320119 6:0.218152 7:1 
-32768 1:0.004 2:0.0587959 3:0.00345696 4:0.00524006 5:0.00444762 6:0.662318 
-31603.3446169341 1:0.012 2:0.0583945 3:0.00340992 4:0.00681208 5:0.00145234 6:0.915073 
-32768 1:0.004 2:0.048 3:0.002304 4:0.00157202 5:0.00423073 6:0.220421 7:1 
-32768 1:0.052 2:0.04535 3:0.00205663 4:0.00589507 5:0.00451351 6:0.782253 
-32768 1:0.004 2:0.0427959 3:0.00183149 4:0.00451955 5:0.00527949 6:0.611345 7:1 
-14979.90374792663 1:0.004 2:0.0486196 3:0.00236387 4:0.00491256 5:0.00446409 6:0.662561 
-32768 1:0.004 2:0.0547959 3:0.00300259 4:0.00582957 5:0.0030996 6:0.834522 
-32768 1:0.004 2:0.0507959 3:0.00258022 4:0.00373354 5:0.00478256 6:0.549676 7:1 
-32768 1:0.004 2:0.0467959 3:0.00218985 4:0.00176852 5:0.00291017 6:0.27658 7:1 
